{"learner":{"attributes":{},"feature_names":["age","gender","wbc","hct","hb","platelets"],"feature_types":["int","int","float","float","float","float"],"gradient_booster":{"model":{"cats":{"enc":[],"feature_segments":[],"sorted_idx":[]},"gbtree_model_param":{"num_parallel_tree":"1","num_trees":"200"},"iteration_indptr":[0,1,2,3,4,5,6,7,8,9,10,11,12,13,14,15,16,17,18,19,20,21,22,23,24,25,26,27,28,29,30,31,32,33,34,35,36,37,38,39,40,41,42,43,44,45,46,47,48,49,50,51,52,53,54,55,56,57,58,59,60,61,62,63,64,65,66,67,68,69,70,71,72,73,74,75,76,77,78,79,80,81,82,83,84,85,86,87,88,89,90,91,92,93,94,95,96,97,98,99,100,101,102,103,104,105,106,107,108,109,110,111,112,113,114,115,116,117,118,119,120,121,122,123,124,125,126,127,128,129,130,131,132,133,134,135,136,137,138,139,140,141,142,143,144,145,146,147,148,149,150,151,152,153,154,155,156,157,158,159,160,161,162,163,164,165,166,167,168,169,170,171,172,173,174,175,176,177,178,179,180,181,182,183,184,185,186,187,188,189,190,191,192,193,194,195,196,197,198,199,200],"tree_info":[0,0,0,0,0,0,0,0,0,0,0,0,0,0,0,0,0,0,0,0,0,0,0,0,0,0,0,0,0,0,0,0,0,0,0,0,0,0,0,0,0,0,0,0,0,0,0,0,0,0,0,0,0,0,0,0,0,0,0,0,0,0,0,0,0,0,0,0,0,0,0,0,0,0,0,0,0,0,0,0,0,0,0,0,0,0,0,0,0,0,0,0,0,0,0,0,0,0,0,0,0,0,0,0,0,0,0,0,0,0,0,0,0,0,0,0,0,0,0,0,0,0,0,0,0,0,0,0,0,0,0,0,0,0,0,0,0,0,0,0,0,0,0,0,0,0,0,0,0,0,0,0,0,0,0,0,0,0,0,0,0,0,0,0,0,0,0,0,0,0,0,0,0,0,0,0,0,0,0,0,0,0,0,0,0,0,0,0,0,0,0,0,0,0,0,0,0,0,0,0],"trees":[{"base_weights":[-0E0,6.6162723E-1,-1.99281E-1,1.4562697E0,-3.7545788E-1,-1.9012347E-1,1.5523466E0,-1.0334044E0,8.117798E-1,-1.84E-1,1.6123348E0,6.198083E-1,-1.5009108E0,1.2246696E0,-1.923077E-1,1.6498516E-1,-1.75E-1,-1.9157895E-1,1.6936937E-1,-1.988372E-1,-6.763285E-2,-1.8431373E-1,1.4637224E-1],"categories":[],"categories_nodes":[],"categories_segments":[],"categories_sizes":[],"default_left":[0,0,0,0,0,0,0,0,0,0,0,0,0,0,0,0,0,0,0,0,0,0,0],"id":0,"left_children":[1,3,-1,5,7,-1,9,11,13,-1,15,17,19,21,-1,-1,-1,-1,-1,-1,-1,-1,-1],"loss_changes":[2.2071646E3,1.0362495E3,0E0,2.3254651E2,4.273407E2,0E0,1.4389099E2,2.727935E2,2.2283037E2,0E0,8.879138E1,2.1631494E2,1.0899103E2,1.27553696E2,0E0,0E0,0E0,0E0,0E0,0E0,0E0,0E0,0E0],"parents":[2147483647,0,0,1,1,3,3,4,4,6,6,7,7,8,8,10,10,11,11,12,12,13,13],"right_children":[2,4,-1,6,8,-1,10,12,14,-1,16,18,20,22,-1,-1,-1,-1,-1,-1,-1,-1,-1],"split_conditions":[6.7E1,1E0,-1.99281E-1,1.5E0,2.4121313E0,-1.9012347E-1,2.646E1,1.342229E2,6.1E1,-1.84E-1,2.7722221E1,1.3392934E2,3.4988888E1,2.9977264E1,-1.923077E-1,1.6498516E-1,-1.75E-1,-1.9157895E-1,1.6936937E-1,-1.988372E-1,-6.763285E-2,-1.8431373E-1,1.4637224E-1],"split_indices":[0,1,0,2,2,0,3,4,0,0,5,4,3,3,0,0,0,0,0,0,0,0,0],"split_type":[0,0,0,0,0,0,0,0,0,0,0,0,0,0,0,0,0,0,0,0,0,0,0],"sum_hessian":[1.672E3,1.25575E3,4.1625E2,7.1075E2,5.45E2,1.925E1,6.915E2,3.5075E2,1.9425E2,1.15E1,6.8E2,7.725E1,2.735E2,1.6925E2,2.5E1,6.73E2,7E0,2.275E1,5.45E1,1.71E2,1.025E2,1.175E1,1.575E2],"tree_param":{"num_deleted":"0","num_feature":"6","num_nodes":"23","size_leaf_vector":"1"}},{"base_weights":[-7.4070244E-4,5.988861E-1,-1.8124956E-1,1.3194786E0,-3.4124509E-1,-1.7358649E-1,1.4067477E0,1.1527253E0,-7.867446E-1,-1.5716538E0,1.4637414E0,-1.760504E-1,1.6786528E0,-1.8248061E0,-1.9486876E-1,-1.6714035E-1,-6.637373E-2,1.4980692E-1,-1.607982E-1,-1.3943754E-1,1.7880972E-1,-1.830931E-1,-5.9778243E-2,2.7574642E-2,-1.9149764E-1],"categories":[],"categories_nodes":[],"categories_segments":[],"categories_sizes":[],"default_left":[0,0,0,0,0,0,0,0,0,0,0,0,0,0,0,0,0,0,0,0,0,0,0,0,0],"id":1,"left_children":[1,3,-1,5,7,-1,9,11,13,15,17,-1,19,21,23,-1,-1,-1,-1,-1,-1,-1,-1,-1,-1],"loss_changes":[1.80496E3,8.461168E2,0E0,1.9091919E2,3.6193347E2,0E0,1.1905298E2,1.9448056E2,2.5673126E2,1.0386658E-1,7.36261E1,0E0,3.8278473E1,4.650879E-2,2.1715907E2,0E0,0E0,0E0,0E0,0E0,0E0,0E0,0E0,0E0,0E0],"parents":[2147483647,0,0,1,1,3,3,4,4,6,6,7,7,8,8,9,9,10,10,12,12,13,13,14,14],"right_children":[2,4,-1,6,8,-1,10,12,14,16,18,-1,20,22,24,-1,-1,-1,-1,-1,-1,-1,-1,-1,-1],"split_conditions":[6.7E1,1E0,-1.8124956E-1,1.5E0,2.22E1,-1.7358649E-1,2.655625E1,2.2182436E0,3.2466793E1,2.634706E1,2.7722221E1,-1.760504E-1,2.9325E1,3.242857E1,3.6287125E1,-1.6714035E-1,-6.637373E-2,1.4980692E-1,-1.607982E-1,-1.3943754E-1,1.7880972E-1,-1.830931E-1,-5.9778243E-2,2.7574642E-2,-1.9149764E-1],"split_indices":[0,1,0,2,5,0,3,2,3,3,5,0,3,3,3,0,0,0,0,0,0,0,0,0,0],"split_type":[0,0,0,0,0,0,0,0,0,0,0,0,0,0,0,0,0,0,0,0,0,0,0,0,0],"sum_hessian":[1.6594503E3,1.2473057E3,4.121446E2,7.058679E2,5.4143774E2,1.9077087E1,6.8679083E2,1.2400452E2,4.1743326E2,1.2396437E1,6.743944E2,1.860421E1,1.0540031E2,1.5082526E2,2.66608E2,1.0411627E1,1.9848093E0,6.674477E2,6.9466786E0,3.2209368E0,1.0217937E2,1.4958641E2,1.2388464E0,2.0999408E2,5.6613922E1],"tree_param":{"num_deleted":"0","num_feature":"6","num_nodes":"25","size_leaf_vector":"1"}},{"base_weights":[-1.5967344E-3,5.472408E-1,-1.6768323E-1,1.2096187E0,-3.1255025E-1,-1.6087282E-1,1.289706E0,-9.3823045E-1,5.8141506E-1,-1.458412E0,1.3422949E0,3.2889444E-1,-1.3899672E0,1.4803158E0,-3.0927178E-1,-1.5704753E-1,-6.8465725E-2,1.3739835E-1,-1.4951035E-1,-1.6691989E-1,1.1984163E-1,-1.7272414E-1,-7.431137E-2,-1.377449E-1,1.6045175E-1,-1.7461962E-1,1.1316147E-1],"categories":[],"categories_nodes":[],"categories_segments":[],"categories_sizes":[],"default_left":[0,0,0,0,0,0,0,0,0,0,0,0,0,0,0,0,0,0,0,0,0,0,0,0,0,0,0],"id":2,"left_children":[1,3,-1,5,7,-1,9,11,13,15,17,19,21,23,25,-1,-1,-1,-1,-1,-1,-1,-1,-1,-1,-1,-1],"loss_changes":[1.4997946E3,7.0012085E2,0E0,1.5877002E2,3.000482E2,0E0,9.959497E1,1.8098245E2,1.7746426E2,6.6287994E-2,6.1704956E1,1.4740915E2,4.9480713E1,4.1326675E1,2.3360759E2,0E0,0E0,0E0,0E0,0E0,0E0,0E0,0E0,0E0,0E0,0E0,0E0],"parents":[2147483647,0,0,1,1,3,3,4,4,6,6,7,7,8,8,9,9,10,10,11,11,12,12,13,13,14,14],"right_children":[2,4,-1,6,8,-1,10,12,14,16,18,20,22,24,26,-1,-1,-1,-1,-1,-1,-1,-1,-1,-1,-1,-1],"split_conditions":[6.7E1,1E0,-1.6768323E-1,1.5E0,2.2618725E0,-1.6087282E-1,2.655625E1,1.35E2,2.27E1,2.6646923E1,2.7722221E1,3.345714E1,3.518891E1,2.9325E1,1.3944444E2,-1.5704753E-1,-6.8465725E-2,1.3739835E-1,-1.4951035E-1,-1.6691989E-1,1.1984163E-1,-1.7272414E-1,-7.431137E-2,-1.377449E-1,1.6045175E-1,-1.7461962E-1,1.1316147E-1],"split_indices":[0,1,0,2,2,0,3,4,5,5,5,3,3,3,4,0,0,0,0,0,0,0,0,0,0,0,0],"split_type":[0,0,0,0,0,0,0,0,0,0,0,0,0,0,0,0,0,0,0,0,0,0,0,0,0,0,0],"sum_hessian":[1.6292202E3,1.2276825E3,4.0153775E2,6.9322174E2,5.3446075E2,1.8627155E1,6.745946E2,3.1437933E2,2.2008145E2,1.2164939E1,6.624297E2,8.269399E1,2.3168533E2,1.0920618E2,1.1087527E2,9.726557E0,2.4383817E0,6.5562335E2,6.806319E0,2.4795708E1,5.789828E1,1.5118575E2,8.0499596E1,4.1282663E0,1.0507791E2,5.540787E1,5.5467396E1],"tree_param":{"num_deleted":"0","num_feature":"6","num_nodes":"27","size_leaf_vector":"1"}},{"base_weights":[-2.3586934E-3,5.0482714E-1,-1.571328E-1,1.1185386E0,-2.8898066E-1,-1.5079533E-1,1.1925896E0,5.8207378E-2,-1.6683966E-1,-1.4805777E-1,1.2396702E0,-1.5700038E-1,3.8741168E-1,1.2690936E-1,-1.403038E-1,6.443599E-2,-1.6930507E-1],"categories":[],"categories_nodes":[],"categories_segments":[],"categories_sizes":[],"default_left":[0,0,0,0,0,0,0,0,0,0,0,0,0,0,0,0,0],"id":3,"left_children":[1,3,-1,5,7,-1,9,11,-1,-1,13,-1,15,-1,-1,-1,-1],"loss_changes":[1.2621802E3,5.842726E2,0E0,1.3331952E2,2.5078038E2,0E0,8.4677124E1,2.2527893E2,0E0,0E0,5.2120056E1,0E0,1.8790143E2,0E0,0E0,0E0,0E0],"parents":[2147483647,0,0,1,1,3,3,4,4,6,6,7,7,10,10,12,12],"right_children":[2,4,-1,6,8,-1,10,12,-1,-1,14,-1,16,-1,-1,-1,-1],"split_conditions":[6.7E1,1E0,-1.571328E-1,1.5E0,2.5729565E1,-1.5079533E-1,2.646E1,2.9977264E1,-1.6683966E-1,-1.4805777E-1,2.7722221E1,-1.5700038E-1,3.6287125E1,1.2690936E-1,-1.403038E-1,6.443599E-2,-1.6930507E-1],"split_indices":[0,1,0,2,5,0,3,3,0,0,5,0,3,0,0,0,0],"split_type":[0,0,0,0,0,0,0,0,0,0,0,0,0,0,0,0,0],"sum_hessian":[1.5841365E3,1.1976589E3,3.864776E2,6.752208E2,5.224381E2,1.7984118E1,6.572367E2,4.1815073E2,1.04287415E2,1.0848103E1,6.463886E2,6.969201E1,3.484587E2,6.397851E2,6.603488E0,3.1076755E2,3.769117E1],"tree_param":{"num_deleted":"0","num_feature":"6","num_nodes":"17","size_leaf_vector":"1"}},{"base_weights":[-3.3252903E-3,4.6638396E-1,-1.4871877E-1,1.0411016E0,-2.6707453E-1,-1.4261064E-1,1.109956E0,-8.2774174E-1,5.31933E-1,-1.2949296E0,1.155883E0,3.742299E-1,-1.2126511E0,1.4129437E0,-2.0688447E-1,-1.4004461E-1,-5.898702E-2,1.1797134E-1,-2.1012878E-1,-1.5041308E-1,1.1476991E-1,-1.575131E-1,-5.5779077E-2,-1.124076E-1,1.4982441E-1,-1.6212915E-1,7.556381E-2],"categories":[],"categories_nodes":[],"categories_segments":[],"categories_sizes":[],"default_left":[0,0,0,0,0,0,0,0,0,0,0,0,0,0,0,0,0,0,0,0,0,0,0,0,0,0,0],"id":4,"left_children":[1,3,-1,5,7,-1,9,11,13,15,17,19,21,23,25,-1,-1,-1,-1,-1,-1,-1,-1,-1,-1,-1,-1],"loss_changes":[1.07108E3,4.9231244E2,0E0,1.12793945E2,2.3052263E2,0E0,7.1901306E1,1.4027034E2,1.3854143E2,9.767914E-2,5.107086E1,1.0933462E2,5.3513397E1,2.2676361E1,1.5968103E2,0E0,0E0,0E0,0E0,0E0,0E0,0E0,0E0,0E0,0E0,0E0,0E0],"parents":[2147483647,0,0,1,1,3,3,4,4,6,6,7,7,8,8,9,9,10,10,11,11,12,12,13,13,14,14],"right_children":[2,4,-1,6,8,-1,10,12,14,16,18,20,22,24,26,-1,-1,-1,-1,-1,-1,-1,-1,-1,-1,-1,-1],"split_conditions":[6.7E1,1E0,-1.4871877E-1,1.5E0,2.2618725E0,-1.4261064E-1,2.655625E1,1.34625E2,2.22E1,2.6646923E1,3.2666667E0,3.345714E1,3.518891E1,2.9325E1,1.3875E2,-1.4004461E-1,-5.898702E-2,1.1797134E-1,-2.1012878E-1,-1.5041308E-1,1.1476991E-1,-1.575131E-1,-5.5779077E-2,-1.124076E-1,1.4982441E-1,-1.6212915E-1,7.556381E-2],"split_indices":[0,1,0,2,2,0,3,4,5,5,2,3,3,3,4,0,0,0,0,0,0,0,0,0,0,0,0],"split_type":[0,0,0,0,0,0,0,0,0,0,0,0,0,0,0,0,0,0,0,0,0,0,0,0,0,0,0],"sum_hessian":[1.5347405E3,1.1662542E3,3.6848627E2,6.536516E2,5.126026E2,1.7211552E1,6.3644006E2,3.012078E2,2.1139484E2,1.1416901E1,6.2502313E2,7.306685E1,2.2814093E2,9.600281E1,1.1539202E2,9.072818E0,2.3440826E0,6.2111664E2,3.906475E0,2.1036152E1,5.2030697E1,1.459494E2,8.219153E1,2.7267056E0,9.327611E1,4.645012E1,6.89419E1],"tree_param":{"num_deleted":"0","num_feature":"6","num_nodes":"27","size_leaf_vector":"1"}},{"base_weights":[-4.146168E-3,4.3431625E-1,-1.4187445E-1,9.722068E-1,-2.4951176E-1,-1.3582823E-1,1.0363648E0,-7.963754E-1,4.6540177E-1,-1.3365811E-1,1.077721E0,2.55669E-1,-1.1782126E0,1.30944E0,-2.2971487E-1,6.522351E-2,1.2784217E-1,-1.5835638E-1,9.746387E-2,-1.4918527E-1,-6.0319223E-2,-1.14700556E-1,1.4124809E-1,-1.4852226E-1,7.8681506E-2],"categories":[],"categories_nodes":[],"categories_segments":[],"categories_sizes":[],"default_left":[0,0,0,0,0,0,0,0,0,0,0,0,0,0,0,0,0,0,0,0,0,0,0,0,0],"id":5,"left_children":[1,3,-1,5,7,-1,9,11,13,-1,15,17,19,21,23,-1,-1,-1,-1,-1,-1,-1,-1,-1,-1],"loss_changes":[9.166869E2,4.152373E2,0E0,9.586066E1,1.9488527E2,0E0,6.1828735E1,1.13690186E2,1.27184326E2,0E0,5.0861572E1,1.0202638E2,3.6482574E1,2.6379578E1,1.5361215E2,0E0,0E0,0E0,0E0,0E0,0E0,0E0,0E0,0E0,0E0],"parents":[2147483647,0,0,1,1,3,3,4,4,6,6,7,7,8,8,10,10,11,11,12,12,13,13,14,14],"right_children":[2,4,-1,6,8,-1,10,12,14,-1,16,18,20,22,24,-1,-1,-1,-1,-1,-1,-1,-1,-1,-1],"split_conditions":[6.7E1,1E0,-1.4187445E-1,1.5E0,2.2064512E0,-1.3582823E-1,2.646E1,1.35E2,2.2333334E1,-1.3365811E-1,2.55228E1,6.2E1,3.525714E1,2.9325E1,1.3903267E2,6.522351E-2,1.2784217E-1,-1.5835638E-1,9.746387E-2,-1.4918527E-1,-6.0319223E-2,-1.14700556E-1,1.4124809E-1,-1.4852226E-1,7.8681506E-2],"split_indices":[0,1,0,2,2,0,3,4,5,0,5,0,3,3,4,0,0,0,0,0,0,0,0,0,0],"split_type":[0,0,0,0,0,0,0,0,0,0,0,0,0,0,0,0,0,0,0,0,0,0,0,0,0],"sum_hessian":[1.4759423E3,1.1272408E3,3.4870145E2,6.307103E2,4.9653052E2,1.6357725E1,6.143526E2,2.8126593E2,2.1526459E2,9.987176E0,6.043654E2,7.4988045E1,2.062779E2,9.681916E1,1.18445435E2,1.950689E2,4.092965E2,2.0737034E1,5.4251007E1,1.3244336E2,7.383454E1,3.4899104E0,9.332925E1,5.2787254E1,6.565818E1],"tree_param":{"num_deleted":"0","num_feature":"6","num_nodes":"25","size_leaf_vector":"1"}},{"base_weights":[-4.7516553E-3,4.0603465E-1,-1.3621739E-1,9.110464E-1,-2.3417936E-1,-1.3011037E-1,9.709648E-1,6.310465E-2,-1.46397E-1,-1.1759195E0,1.0116247E0,-1.379427E-1,3.3152118E-1,-1.2799452E-1,-5.1421743E-2,1.035042E-1,-2.4284892E-1,5.5935096E-2,-1.5222268E-1],"categories":[],"categories_nodes":[],"categories_segments":[],"categories_sizes":[],"default_left":[0,0,0,0,0,0,0,0,0,0,0,0,0,0,0,0,0,0,0],"id":6,"left_children":[1,3,-1,5,7,-1,9,11,-1,13,15,-1,17,-1,-1,-1,-1,-1,-1],"loss_changes":[7.896037E2,3.516847E2,0E0,8.1841736E1,1.7564062E2,0E0,5.290631E1,1.505552E2,0E0,1.3166046E-1,4.9397095E1,0E0,1.3922711E2,0E0,0E0,0E0,0E0,0E0,0E0],"parents":[2147483647,0,0,1,1,3,3,4,4,6,6,7,7,9,9,10,10,12,12],"right_children":[2,4,-1,6,8,-1,10,12,-1,14,16,-1,18,-1,-1,-1,-1,-1,-1],"split_conditions":[6.7E1,1E0,-1.3621739E-1,1.5E0,2.5729565E1,-1.3011037E-1,2.655625E1,2.9977264E1,-1.46397E-1,2.6646923E1,3.7825E1,-1.379427E-1,3.6287125E1,-1.2799452E-1,-5.1421743E-2,1.035042E-1,-2.4284892E-1,5.5935096E-2,-1.5222268E-1],"split_indices":[0,1,0,2,5,0,3,3,0,5,3,0,3,0,0,0,0,0,0],"split_type":[0,0,0,0,0,0,0,0,0,0,0,0,0,0,0,0,0,0,0],"sum_hessian":[1.414057E3,1.0860845E3,3.2797256E2,6.0691583E2,4.791686E2,1.545916E1,5.914567E2,3.866502E2,9.251839E1,1.047443E1,5.8098224E2,6.000901E1,3.266412E2,8.244063E0,2.2303665E0,5.777486E2,3.2336948E0,2.91512E2,3.512922E1],"tree_param":{"num_deleted":"0","num_feature":"6","num_nodes":"19","size_leaf_vector":"1"}},{"base_weights":[-5.8973283E-3,3.778806E-1,-1.3147955E-1,8.552714E-1,-2.1871167E-1,-1.2521653E-1,9.113311E-1,-5.644701E-1,7.32022E-1,4.7552806E-1,1.1260544E0,6.20577E-1,-9.217674E-1,1.0655296E0,-1.4851254E-1,-6.326819E-2,9.5560186E-2,1.18689135E-1,-1.4310859E-1,-1.457613E-1,1.3174288E-1,-1.4299196E-1,-2.8577331E-2,1.21660985E-1,-1.4433174E-1],"categories":[],"categories_nodes":[],"categories_segments":[],"categories_sizes":[],"default_left":[0,0,0,0,0,0,0,0,0,0,0,0,0,0,0,0,0,0,0,0,0,0,0,0,0],"id":7,"left_children":[1,3,-1,5,7,-1,9,11,13,15,17,19,21,23,-1,-1,-1,-1,-1,-1,-1,-1,-1,-1,-1],"loss_changes":[6.8223505E2,2.993011E2,0E0,7.008923E1,1.5413434E2,0E0,5.2715363E1,1.4600763E2,9.412013E1,1.0145682E2,6.089157E1,1.1801949E2,8.501303E1,4.3209488E1,0E0,0E0,0E0,0E0,0E0,0E0,0E0,0E0,0E0,0E0,0E0],"parents":[2147483647,0,0,1,1,3,3,4,4,6,6,7,7,8,8,9,9,10,10,11,11,12,12,13,13],"right_children":[2,4,-1,6,8,-1,10,12,14,16,18,20,22,24,-1,-1,-1,-1,-1,-1,-1,-1,-1,-1,-1],"split_conditions":[6.7E1,1E0,-1.3147955E-1,1.5E0,2.7142856E0,-1.2521653E-1,2.55228E1,1.3412163E2,5.9E1,2.2064512E0,2.7611828E1,1.3387193E2,3.4582043E1,3.2666667E0,-1.4851254E-1,-6.326819E-2,9.5560186E-2,1.18689135E-1,-1.4310859E-1,-1.457613E-1,1.3174288E-1,-1.4299196E-1,-2.8577331E-2,1.21660985E-1,-1.4433174E-1],"split_indices":[0,1,0,2,2,0,5,4,0,2,5,4,3,2,0,0,0,0,0,0,0,0,0,0,0],"split_type":[0,0,0,0,0,0,0,0,0,0,0,0,0,0,0,0,0,0,0,0,0,0,0,0,0],"sum_hessian":[1.3561622E3,1.0492316E3,3.069306E2,5.8260205E2,4.6662952E2,1.4543306E1,5.680588E2,3.4248312E2,1.2414639E2,1.885638E2,3.7949496E2,7.916846E1,2.6331467E2,1.08365295E2,1.5781101E1,5.6899105E1,1.3166469E2,3.7119962E2,8.295353E0,1.9606165E1,5.9562294E1,1.4567426E2,1.1764041E2,1.02696106E2,5.669188E0],"tree_param":{"num_deleted":"0","num_feature":"6","num_nodes":"25","size_leaf_vector":"1"}},{"base_weights":[-6.321866E-3,3.5489684E-1,-1.274672E-1,8.05097E-1,-2.0637646E-1,-1.2097033E-1,8.5762405E-1,6.166007E-2,-1.3683803E-1,8.8742113E-1,-2.065883E-1,-1.2876022E-1,2.9220653E-1,4.69322E-2,1.0895511E-1,4.993579E-2,-1.4278582E-1],"categories":[],"categories_nodes":[],"categories_segments":[],"categories_sizes":[],"default_left":[0,0,0,0,0,0,0,0,0,0,0,0,0,0,0,0,0],"id":8,"left_children":[1,3,-1,5,7,-1,9,11,-1,13,-1,-1,15,-1,-1,-1,-1],"loss_changes":[5.9327216E2,2.5484741E2,0E0,6.0249542E1,1.4005586E2,0E0,4.938452E1,1.1426704E2,0E0,4.521341E1,0E0,0E0,1.1242217E2,0E0,0E0,0E0,0E0],"parents":[2147483647,0,0,1,1,3,3,4,4,6,6,7,7,9,9,12,12],"right_children":[2,4,-1,6,8,-1,10,12,-1,14,-1,-1,16,-1,-1,-1,-1],"split_conditions":[6.7E1,1E0,-1.274672E-1,1.5E0,2.5729565E1,-1.2097033E-1,3.2666667E0,2.9977264E1,-1.3683803E-1,2.540153E1,-2.065883E-1,-1.2876022E-1,3.6287125E1,4.69322E-2,1.0895511E-1,4.993579E-2,-1.4278582E-1],"split_indices":[0,1,0,2,5,0,2,3,0,5,0,0,3,0,0,0,0],"split_type":[0,0,0,0,0,0,0,0,0,0,0,0,0,0,0,0,0],"sum_hessian":[1.2929376E3,1.00689886E3,2.8603876E2,5.584938E2,4.484051E2,1.3630569E1,5.448632E2,3.651287E2,8.327639E1,5.400553E2,4.807919E0,5.2615276E1,3.1251343E2,1.7708426E2,3.6297104E2,2.7955557E2,3.2957844E1],"tree_param":{"num_deleted":"0","num_feature":"6","num_nodes":"17","size_leaf_vector":"1"}},{"base_weights":[-7.239813E-3,3.308496E-1,-1.2403665E-1,-1.284848E0,4.76575E-1,-1.376759E-1,-5.3239435E-1,8.135336E-1,7.0070582E-3,-1.5493423E-1,6.4636123E-1,8.5048914E-1,-1.4852941E-1,2.577152E-1,-1.3258527E-1,9.623227E-2,1.7877901E-2,4.0678028E-2,1.0887094E-1,-1.2503839E-1,4.643307E-2],"categories":[],"categories_nodes":[],"categories_segments":[],"categories_sizes":[],"default_left":[0,0,0,0,0,0,0,0,0,0,0,0,0,0,0,0,0,0,0,0,0],"id":9,"left_children":[1,3,-1,5,7,-1,9,11,13,-1,15,17,-1,19,-1,-1,-1,-1,-1,-1,-1],"loss_changes":[5.166029E2,2.2958954E2,0E0,4.8500977E0,1.4125568E2,0E0,1.348983E1,4.542102E1,1.2531924E2,0E0,6.450598E-1,5.3696167E1,0E0,9.893032E1,0E0,0E0,0E0,0E0,0E0,0E0,0E0],"parents":[2147483647,0,0,1,1,3,3,4,4,6,6,7,7,8,8,10,10,11,11,13,13],"right_children":[2,4,-1,6,8,-1,10,12,14,-1,16,18,-1,20,-1,-1,-1,-1,-1,-1,-1],"split_conditions":[6.7E1,1.5096774E0,-1.2403665E-1,1.5E0,1E0,-1.376759E-1,3.518891E1,2.7722221E1,2.5729565E1,-1.5493423E-1,3.7604317E1,2.55228E1,-1.4852941E-1,2.9977264E1,-1.3258527E-1,9.623227E-2,1.7877901E-2,4.0678028E-2,1.0887094E-1,-1.2503839E-1,4.643307E-2],"split_indices":[0,2,0,2,1,0,3,5,5,0,3,5,0,3,0,0,0,0,0,0,0],"split_type":[0,0,0,0,0,0,0,0,0,0,0,0,0,0,0,0,0,0,0,0,0],"sum_hessian":[1.2371478E3,9.715164E2,2.6563138E2,7.972843E1,8.9178796E2,7.031044E1,9.4179945E0,5.187815E2,3.7300647E2,4.887238E0,4.530756E0,5.111937E2,7.58783E0,3.1463156E2,5.83749E1,2.072329E0,2.458427E0,1.7952255E2,3.3167114E2,3.730299E1,2.7732858E2],"tree_param":{"num_deleted":"0","num_feature":"6","num_nodes":"21","size_leaf_vector":"1"}},{"base_weights":[-7.985751E-3,3.0887833E-1,-1.2107884E-1,-2.5663102E-1,6.9938815E-1,-5.952353E-1,9.2937136E-1,9.1808736E-1,-7.066317E-2,-1.6138725E0,1.4199296E-1,-1.7658333E-1,1.1228627E0,-1.72215E0,1.0155574E0,2.573568E-1,-1.8288566E0,-2.3431578E-1,-1.3310002E-1,3.8465485E-2,-1.946994E-1,-8.71309E-2,1.1876462E-1,-2.2050177E-1,-1.165152E-1,1.0698974E-1,-1.4046665E-1,8.160483E-2,-3.6495604E-2,-2.534502E-1,-1.3816433E-1],"categories":[],"categories_nodes":[],"categories_segments":[],"categories_sizes":[],"default_left":[0,0,0,0,0,0,0,0,0,0,0,0,0,0,0,0,0,0,0,0,0,0,0,0,0,0,0,0,0,0,0],"id":10,"left_children":[1,3,-1,5,7,9,11,13,15,17,19,-1,21,23,25,27,29,-1,-1,-1,-1,-1,-1,-1,-1,-1,-1,-1,-1,-1,-1],"loss_changes":[4.5138098E2,2.0719498E2,0E0,1.54618E2,9.3493835E1,2.2480391E2,4.662021E1,1.129563E2,7.177501E1,2.2800201E1,8.915861E1,0E0,1.1430977E1,1.6685371E0,5.639435E1,3.6830063E1,2.6718369E0,0E0,0E0,0E0,0E0,0E0,0E0,0E0,0E0,0E0,0E0,0E0,0E0,0E0,0E0],"parents":[2147483647,0,0,1,1,3,3,4,4,5,5,6,6,7,7,8,8,9,9,10,10,12,12,13,13,14,14,15,15,16,16],"right_children":[2,4,-1,6,8,10,12,14,16,18,20,-1,22,24,26,28,30,-1,-1,-1,-1,-1,-1,-1,-1,-1,-1,-1,-1,-1,-1],"split_conditions":[6.7E1,2.0333333E0,-1.2107884E-1,6.6E1,6E1,3.4374084E1,2.4455479E1,2.8425E1,2.6857142E0,1E0,2.0252252E0,-1.7658333E-1,1.4888889E0,1E0,3.635E1,2.8586842E1,1E0,-2.3431578E-1,-1.3310002E-1,3.8465485E-2,-1.946994E-1,-8.71309E-2,1.1876462E-1,-2.2050177E-1,-1.165152E-1,1.0698974E-1,-1.4046665E-1,8.160483E-2,-3.6495604E-2,-2.534502E-1,-1.3816433E-1],"split_indices":[0,2,0,0,0,3,5,3,2,1,2,0,2,1,3,3,1,0,0,0,0,0,0,0,0,0,0,0,0,0,0],"split_type":[0,0,0,0,0,0,0,0,0,0,0,0,0,0,0,0,0,0,0,0,0,0,0,0,0,0,0,0,0,0,0],"sum_hessian":[1.1823573E3,9.3641345E2,2.4594385E2,3.826414E2,5.537721E2,2.9804697E2,8.4594444E1,4.3113492E2,1.2263718E2,1.2464052E2,1.7340643E2,5.122019E0,7.947242E1,1.4756162E1,4.1637875E2,1.04074066E2,1.8563108E1,3.279833E1,9.184219E1,1.5609045E2,1.7315987E1,2.1088195E0,7.73636E1,6.319212E0,8.43695E0,4.07781E2,8.59775E0,5.4676254E1,4.939781E1,5.3904095E0,1.3172698E1],"tree_param":{"num_deleted":"0","num_feature":"6","num_nodes":"31","size_leaf_vector":"1"}},{"base_weights":[-9.095868E-3,2.8803852E-1,-1.18509464E-1,-1.2191741E0,4.1862258E-1,-1.3147397E-1,-4.7578815E-1,7.3531383E-1,-8.653079E-3,-1.4052771E-1,5.713944E-1,1.0404028E0,4.346007E-1,2.1693638E-1,-1.2744044E-1,7.457625E-2,-4.501786E-3,-2.0357826E-1,1.1013659E-1,5.6219466E-2,-2.1011546E-1,-1.2004056E-1,3.953856E-2],"categories":[],"categories_nodes":[],"categories_segments":[],"categories_sizes":[],"default_left":[0,0,0,0,0,0,0,0,0,0,0,0,0,0,0,0,0,0,0,0,0,0,0],"id":11,"left_children":[1,3,-1,5,7,-1,9,11,13,-1,15,17,19,21,-1,-1,-1,-1,-1,-1,-1,-1,-1],"loss_changes":[3.9522485E2,1.7822617E2,0E0,4.5071564E0,1.1254686E2,0E0,1.0338851E1,4.337152E1,1.016501E2,0E0,6.051414E-1,4.6573914E1,7.956976E1,7.690192E1,0E0,0E0,0E0,0E0,0E0,0E0,0E0,0E0,0E0],"parents":[2147483647,0,0,1,1,3,3,4,4,6,6,7,7,8,8,10,10,11,11,12,12,13,13],"right_children":[2,4,-1,6,8,-1,10,12,14,-1,16,18,20,22,-1,-1,-1,-1,-1,-1,-1,-1,-1],"split_conditions":[6.7E1,1.5096774E0,-1.18509464E-1,1.5E0,1E0,-1.3147397E-1,3.518891E1,4.8E1,2.5729565E1,-1.4052771E-1,2.59E1,3.0725E1,2.6818182E1,2.9977264E1,-1.2744044E-1,7.457625E-2,-4.501786E-3,-2.0357826E-1,1.1013659E-1,5.6219466E-2,-2.1011546E-1,-1.2004056E-1,3.953856E-2],"split_indices":[0,2,0,2,1,0,3,0,5,0,5,3,5,3,0,0,0,0,0,0,0,0,0],"split_type":[0,0,0,0,0,0,0,0,0,0,0,0,0,0,0,0,0,0,0,0,0,0,0],"sum_hessian":[1.1290802E3,9.019448E2,2.2713535E2,7.124879E1,8.3069604E2,6.2451763E1,8.797027E0,4.7667197E2,3.5402408E2,4.4792457E0,4.3177805E0,2.3539343E2,2.4127853E2,3.0117548E2,5.2848606E1,3.2021313E0,1.1156491E0,3.9448242E0,2.3144861E2,2.3046053E2,1.0818003E1,3.3038513E1,2.6813696E2],"tree_param":{"num_deleted":"0","num_feature":"6","num_nodes":"23","size_leaf_vector":"1"}},{"base_weights":[-9.988557E-3,2.688856E-1,-1.1626219E-1,-1.7221251E-1,6.998123E-1,-9.120445E-1,2.9909992E-1,8.3885515E-1,-1.1361746E0,3.7940702E-1,-1.3899657E0,5.445247E-1,-1.4755468E0,9.088025E-1,-1.709825E-1,3.0829296E-1,-1.7924825E0,-1.5665148E-1,1.19658284E-1,-7.015771E-2,-1.6296831E-1,9.2541076E-2,-2.1322152E-2,-1.9413437E-1,-1.18017934E-1,9.673057E-2,-1.5397154E-1,9.010821E-2,-1.2600611E-1,-2.6241824E-1,-1.4034401E-1],"categories":[],"categories_nodes":[],"categories_segments":[],"categories_sizes":[],"default_left":[0,0,0,0,0,0,0,0,0,0,0,0,0,0,0,0,0,0,0,0,0,0,0,0,0,0,0,0,0,0,0],"id":12,"left_children":[1,3,-1,5,7,9,11,13,15,17,19,21,23,25,-1,27,29,-1,-1,-1,-1,-1,-1,-1,-1,-1,-1,-1,-1,-1,-1],"loss_changes":[3.4700943E2,1.6535187E2,0E0,1.5033835E2,1.1325154E2,1.0404784E2,1.1563175E2,7.45582E1,3.0314579E1,7.5162994E1,1.9093552E1,6.725521E1,2.1528091E0,5.867627E1,0E0,1.1047084E1,3.349144E0,0E0,0E0,0E0,0E0,0E0,0E0,0E0,0E0,0E0,0E0,0E0,0E0,0E0,0E0],"parents":[2147483647,0,0,1,1,3,3,4,4,5,5,6,6,7,7,8,8,9,9,10,10,11,11,12,12,13,13,15,15,16,16],"right_children":[2,4,-1,6,8,10,12,14,16,18,20,22,24,26,-1,28,30,-1,-1,-1,-1,-1,-1,-1,-1,-1,-1,-1,-1,-1,-1],"split_conditions":[6.7E1,2.2064512E0,-1.1626219E-1,2.5066668E1,6.3E1,1.3412163E2,2.6818182E1,3.2666667E0,2.749656E1,1.3392934E2,4.9E1,1E0,1E0,3.5852325E1,-1.709825E-1,2.3607342E0,1E0,-1.5665148E-1,1.19658284E-1,-7.015771E-2,-1.6296831E-1,9.2541076E-2,-2.1322152E-2,-1.9413437E-1,-1.18017934E-1,9.673057E-2,-1.5397154E-1,9.010821E-2,-1.2600611E-1,-2.6241824E-1,-1.4034401E-1],"split_indices":[0,2,0,5,0,4,5,2,3,4,0,1,1,3,0,2,1,0,0,0,0,0,0,0,0,0,0,0,0,0,0],"split_type":[0,0,0,0,0,0,0,0,0,0,0,0,0,0,0,0,0,0,0,0,0,0,0,0,0,0,0,0,0,0,0],"sum_hessian":[1.0775751E3,8.6826843E2,2.0930672E2,4.2936707E2,4.3890134E2,1.6672272E2,2.6264432E2,4.085074E2,3.0393965E1,4.5088768E1,1.2163396E2,2.313438E2,3.1300531E1,3.982218E2,1.0285594E1,9.661106E0,2.0732859E1,1.306364E1,3.2025127E1,3.2430626E1,8.920333E1,1.538093E2,7.75345E1,9.983633E0,2.1316898E1,3.8951984E2,8.701963E0,7.319879E0,2.341227E0,4.7764564E0,1.5956403E1],"tree_param":{"num_deleted":"0","num_feature":"6","num_nodes":"31","size_leaf_vector":"1"}},{"base_weights":[-1.1029344E-2,2.5236318E-1,-1.14284016E-1,-2.4140513E-1,5.9731495E-1,-5.443437E-1,8.552152E-1,8.2518524E-1,-4.489932E-2,-1.5164231E0,1.1194935E-1,-1.6125862E-1,1.0408455E0,-1.6351945E0,9.243489E-1,8.409639E-1,-4.8620915E-1,-2.1059923E-1,-1.2508105E-1,3.394493E-2,-1.7887951E-1,1.094779E-1,-9.3508534E-2,-2.0383076E-1,-1.0974478E-1,9.756478E-2,-1.2510455E-1,1.0947885E-1,-1.3239476E-1,3.9253347E-2,-1.6463733E-1],"categories":[],"categories_nodes":[],"categories_segments":[],"categories_sizes":[],"default_left":[0,0,0,0,0,0,0,0,0,0,0,0,0,0,0,0,0,0,0,0,0,0,0,0,0,0,0,0,0,0,0],"id":13,"left_children":[1,3,-1,5,7,9,11,13,15,17,19,-1,21,23,25,27,29,-1,-1,-1,-1,-1,-1,-1,-1,-1,-1,-1,-1,-1,-1],"loss_changes":[3.055827E2,1.4178464E2,0E0,1.1432292E2,7.172313E1,1.7188235E2,3.5840527E1,8.973865E1,5.0933422E1,1.436409E1,7.048922E1,0E0,8.479713E0,8.7833023E-1,4.008316E1,2.5265438E1,8.92375E1,0E0,0E0,0E0,0E0,0E0,0E0,0E0,0E0,0E0,0E0,0E0,0E0,0E0,0E0],"parents":[2147483647,0,0,1,1,3,3,4,4,5,5,6,6,7,7,8,8,9,9,10,10,12,12,13,13,14,14,15,15,16,16],"right_children":[2,4,-1,6,8,10,12,14,16,18,20,-1,22,24,26,28,30,-1,-1,-1,-1,-1,-1,-1,-1,-1,-1,-1,-1,-1,-1],"split_conditions":[6.7E1,2.0333333E0,-1.14284016E-1,6.6E1,5.9E1,3.4374084E1,2.4455479E1,2.8683332E1,2.3E1,1E0,2.0252252E0,-1.6125862E-1,2.6818182E1,1E0,3.6287125E1,1.3672728E2,2.927E1,-2.1059923E-1,-1.2508105E-1,3.394493E-2,-1.7887951E-1,1.094779E-1,-9.3508534E-2,-2.0383076E-1,-1.0974478E-1,9.756478E-2,-1.2510455E-1,1.0947885E-1,-1.3239476E-1,3.9253347E-2,-1.6463733E-1],"split_indices":[0,2,0,0,0,3,5,3,5,1,2,0,5,1,3,4,3,0,0,0,0,0,0,0,0,0,0,0,0,0,0],"split_type":[0,0,0,0,0,0,0,0,0,0,0,0,0,0,0,0,0,0,0,0,0,0,0,0,0,0,0,0,0,0,0],"sum_hessian":[1.0230977E3,8.3058325E2,1.9251448E2,3.4172867E2,4.8885455E2,2.6815512E2,7.3573555E1,3.60616E2,1.2823856E2,1.07548004E2,1.606071E2,4.6093264E0,6.8964226E1,1.3371123E1,3.4724487E2,4.2340584E1,8.589798E1,3.1251526E1,7.629648E1,1.4417252E2,1.6434584E1,6.756594E1,1.3982826E0,6.047359E0,7.3237643E0,3.3978378E2,7.461088E0,3.8339752E1,4.0008345E0,4.9253544E1,3.6644432E1],"tree_param":{"num_deleted":"0","num_feature":"6","num_nodes":"31","size_leaf_vector":"1"}},{"base_weights":[-1.2043373E-2,2.3621227E-1,-1.1253206E-1,-1.1446346E0,3.499357E-1,-1.2420531E-1,-4.2813072E-1,4.1392878E-1,-1.4153546E-1,-1.2804984E-1,4.912865E-1,6.609849E-1,6.998634E-2,8.047089E-2,8.354428E-3,9.827127E-2,3.5968613E-2,2.6336992E-2,-1.2123394E-1],"categories":[],"categories_nodes":[],"categories_segments":[],"categories_sizes":[],"default_left":[0,0,0,0,0,0,0,0,0,0,0,0,0,0,0,0,0,0,0],"id":14,"left_children":[1,3,-1,5,7,-1,9,11,-1,-1,13,15,17,-1,-1,-1,-1,-1,-1],"loss_changes":[2.694779E2,1.2560315E2,0E0,3.7191696E0,8.3886314E1,0E0,7.53745E0,6.048597E1,0E0,0E0,5.6709075E-1,3.982257E1,7.444358E1,0E0,0E0,0E0,0E0,0E0,0E0],"parents":[2147483647,0,0,1,1,3,3,4,4,6,6,7,7,10,10,11,11,12,12],"right_children":[2,4,-1,6,8,-1,10,12,-1,-1,14,16,18,-1,-1,-1,-1,-1,-1],"split_conditions":[6.7E1,1.5096774E0,-1.1253206E-1,1.5E0,3.7604317E1,-1.2420531E-1,3.518891E1,1E0,-1.4153546E-1,-1.2804984E-1,3.7604317E1,4.8E1,2.5729565E1,8.047089E-2,8.354428E-3,9.827127E-2,3.5968613E-2,2.6336992E-2,-1.2123394E-1],"split_indices":[0,2,0,2,3,0,3,1,0,0,3,0,5,0,0,0,0,0,0],"split_type":[0,0,0,0,0,0,0,0,0,0,0,0,0,0,0,0,0,0,0],"sum_hessian":[9.730745E2,7.962928E2,1.7678175E2,5.9900986E1,7.363918E2,5.2085724E1,7.8152623E0,7.113696E2,2.5022154E1,3.8517122E0,3.96355E0,4.1345816E2,2.9791147E2,1.6905155E0,2.2730348E0,1.9885667E2,2.1460147E2,2.595623E2,3.834917E1],"tree_param":{"num_deleted":"0","num_feature":"6","num_nodes":"19","size_leaf_vector":"1"}},{"base_weights":[-1.2439044E-2,2.1948722E-1,-1.1097109E-1,-1.658852E-1,6.0406256E-1,-8.484708E-1,2.781986E-1,7.635607E-1,-7.956171E-1,3.5711432E-1,-1.2900432E0,4.9718308E-1,-1.4055855E0,-1.4692076E0,8.5289264E-1,3.7103057E-1,-1.6541511E0,-1.4570932E-1,1.110379E-1,-6.51238E-2,-1.5289652E-1,8.415618E-2,-1.4671621E-2,-1.7873685E-1,-1.1168919E-1,-1.5575011E-1,-4.571253E-2,9.1510646E-2,-1.4082727E-1,8.7506525E-2,-1.4693117E-1,-2.3892029E-1,-1.2683357E-1],"categories":[],"categories_nodes":[],"categories_segments":[],"categories_sizes":[],"default_left":[0,0,0,0,0,0,0,0,0,0,0,0,0,0,0,0,0,0,0,0,0,0,0,0,0,0,0,0,0,0,0,0,0],"id":15,"left_children":[1,3,-1,5,7,9,11,13,15,17,19,21,23,25,27,29,31,-1,-1,-1,-1,-1,-1,-1,-1,-1,-1,-1,-1,-1,-1,-1,-1],"loss_changes":[2.3789264E2,1.1447455E2,0E0,1.1731848E2,8.6887955E1,8.163936E1,8.726048E1,7.055571E1,4.070335E1,5.8553673E1,1.6071854E1,4.635327E1,1.0103798E0,5.1530266E-1,4.8375946E1,1.7782757E1,3.5605927E0,0E0,0E0,0E0,0E0,0E0,0E0,0E0,0E0,0E0,0E0,0E0,0E0,0E0,0E0,0E0,0E0],"parents":[2147483647,0,0,1,1,3,3,4,4,5,5,6,6,7,7,8,8,9,9,10,10,11,11,12,12,13,13,14,14,15,15,16,16],"right_children":[2,4,-1,6,8,10,12,14,16,18,20,22,24,26,28,30,32,-1,-1,-1,-1,-1,-1,-1,-1,-1,-1,-1,-1,-1,-1,-1,-1],"split_conditions":[6.7E1,2.2064512E0,-1.1097109E-1,2.5066668E1,6.2E1,1.3412163E2,2.6818182E1,2.78625E1,2.7800863E1,1.3392934E2,4.9E1,1E0,1E0,6.1E1,3.5852325E1,2.4747977E0,1E0,-1.4570932E-1,1.110379E-1,-6.51238E-2,-1.5289652E-1,8.415618E-2,-1.4671621E-2,-1.7873685E-1,-1.1168919E-1,-1.5575011E-1,-4.571253E-2,9.1510646E-2,-1.4082727E-1,8.7506525E-2,-1.4693117E-1,-2.3892029E-1,-1.2683357E-1],"split_indices":[0,2,0,5,0,4,5,3,3,4,0,1,1,0,3,2,1,0,0,0,0,0,0,0,0,0,0,0,0,0,0,0,0],"split_type":[0,0,0,0,0,0,0,0,0,0,0,0,0,0,0,0,0,0,0,0,0,0,0,0,0,0,0,0,0,0,0,0,0],"sum_hessian":[9.3283887E2,7.7073206E2,1.621068E2,3.8525113E2,3.8548093E2,1.5149022E2,2.3376091E2,3.4645563E2,3.90253E1,4.0662994E1,1.1082722E2,2.0748161E2,2.6279293E1,1.2734019E1,3.3372162E2,1.6784693E1,2.2240606E1,1.1655888E1,2.9007109E1,3.1181908E1,7.964531E1,1.3498186E2,7.2499756E1,9.08009E0,1.7199203E1,1.1216585E1,1.5174341E0,3.253648E2,8.356813E0,1.358777E1,3.1969218E0,5.86812E0,1.6372486E1],"tree_param":{"num_deleted":"0","num_feature":"6","num_nodes":"33","size_leaf_vector":"1"}},{"base_weights":[-1.3516921E-2,2.0613863E-1,-1.0957193E-1,-1.5742813E-1,5.721956E-1,-8.0481386E-1,2.600705E-1,7.2568524E-1,-7.546979E-1,3.3990425E-1,-1.2189039E0,4.652797E-1,-1.3638897E0,-1.4049793E0,8.11327E-1,3.4572467E-1,-1.5546324E0,-1.4000195E-1,1.0622429E-1,-5.85141E-2,-1.4736493E-1,8.007206E-2,-1.3286531E-2,-1.6917856E-1,-1.0945358E-1,-1.4947748E-1,-4.307778E-2,8.677334E-2,-1.8077001E-1,8.289055E-2,-1.4080839E-1,-2.1169126E-1,-1.217937E-1],"categories":[],"categories_nodes":[],"categories_segments":[],"categories_sizes":[],"default_left":[0,0,0,0,0,0,0,0,0,0,0,0,0,0,0,0,0,0,0,0,0,0,0,0,0,0,0,0,0,0,0,0,0],"id":16,"left_children":[1,3,-1,5,7,9,11,13,15,17,19,21,23,25,27,29,31,-1,-1,-1,-1,-1,-1,-1,-1,-1,-1,-1,-1,-1,-1,-1,-1],"loss_changes":[2.1058646E2,9.810407E1,0E0,1.0028853E2,7.533208E1,6.934328E1,7.590327E1,6.1289185E1,3.4482094E1,5.101907E1,1.64133E1,4.0489334E1,4.086609E-1,5.023689E-1,4.8477127E1,1.56156435E1,1.6835518E0,0E0,0E0,0E0,0E0,0E0,0E0,0E0,0E0,0E0,0E0,0E0,0E0,0E0,0E0,0E0,0E0],"parents":[2147483647,0,0,1,1,3,3,4,4,5,5,6,6,7,7,8,8,9,9,10,10,11,11,12,12,13,13,14,14,15,15,16,16],"right_children":[2,4,-1,6,8,10,12,14,16,18,20,22,24,26,28,30,32,-1,-1,-1,-1,-1,-1,-1,-1,-1,-1,-1,-1,-1,-1,-1,-1],"split_conditions":[6.7E1,2.2064512E0,-1.0957193E-1,2.5066668E1,6.2E1,1.3412163E2,2.6818182E1,2.78625E1,2.7800863E1,1.3392934E2,4.9E1,1E0,1E0,6.1E1,3.2666667E0,2.4747977E0,1E0,-1.4000195E-1,1.0622429E-1,-5.85141E-2,-1.4736493E-1,8.007206E-2,-1.3286531E-2,-1.6917856E-1,-1.0945358E-1,-1.4947748E-1,-4.307778E-2,8.677334E-2,-1.8077001E-1,8.289055E-2,-1.4080839E-1,-2.1169126E-1,-1.217937E-1],"split_indices":[0,2,0,5,0,4,5,3,3,4,0,1,1,0,2,2,1,0,0,0,0,0,0,0,0,0,0,0,0,0,0,0,0],"split_type":[0,0,0,0,0,0,0,0,0,0,0,0,0,0,0,0,0,0,0,0,0,0,0,0,0,0,0,0,0,0,0,0,0],"sum_hessian":[8.839399E2,7.3547034E2,1.4846954E2,3.6927615E2,3.6619415E2,1.4441472E2,2.2486143E2,3.286324E2,3.756177E1,3.8410683E1,1.06004036E2,2.0026834E2,2.4593105E1,1.2103614E1,3.1652878E2,1.605023E1,2.1511541E1,1.0993077E1,2.7417606E1,3.1337831E1,7.466621E1,1.280942E2,7.217415E1,8.709614E0,1.5883492E1,1.05928755E1,1.5107392E0,3.1050995E2,6.018823E0,1.2996902E1,3.0533268E0,6.0764956E0,1.5435046E1],"tree_param":{"num_deleted":"0","num_feature":"6","num_nodes":"33","size_leaf_vector":"1"}},{"base_weights":[-1.4639806E-2,1.9318204E-1,-1.0831006E-1,-1.078022E0,2.911693E-1,-1.175161E-1,-4.0428406E-1,3.4814277E-1,-1.3186032E-1,-1.2363126E-1,4.5964307E-1,1.3391012E-1,7.000804E-1,7.477199E-2,7.6407935E-3,-2.9397491E-2,7.465212E-2,8.544874E-2,-1.371492E-1],"categories":[],"categories_nodes":[],"categories_segments":[],"categories_sizes":[],"default_left":[0,0,0,0,0,0,0,0,0,0,0,0,0,0,0,0,0,0,0],"id":17,"left_children":[1,3,-1,5,7,-1,9,11,-1,-1,13,15,17,-1,-1,-1,-1,-1,-1],"loss_changes":[1.866017E2,8.795325E1,0E0,2.8341904E0,6.0441776E1,0E0,6.2441444E0,4.759091E1,0E0,0E0,4.5102447E-1,1.0359593E2,7.764415E1,0E0,0E0,0E0,0E0,0E0,0E0],"parents":[2147483647,0,0,1,1,3,3,4,4,6,6,7,7,10,10,11,11,12,12],"right_children":[2,4,-1,6,8,-1,10,12,-1,-1,14,16,18,-1,-1,-1,-1,-1,-1],"split_conditions":[6.7E1,1.5096774E0,-1.0831006E-1,1.5E0,3.7604317E1,-1.175161E-1,3.518891E1,2.5555556E0,-1.3186032E-1,-1.2363126E-1,3.7604317E1,3.4860004E1,6.1E1,7.477199E-2,7.6407935E-3,-2.9397491E-2,7.465212E-2,8.544874E-2,-1.371492E-1],"split_indices":[0,2,0,2,3,0,3,2,0,0,3,3,0,0,0,0,0,0,0],"split_type":[0,0,0,0,0,0,0,0,0,0,0,0,0,0,0,0,0,0,0],"sum_hessian":[8.384185E2,7.025815E2,1.35837E2,4.9565014E1,6.530165E2,4.266882E1,6.8961964E0,6.314517E2,2.156478E1,3.2933795E0,3.602817E0,3.933754E2,2.3807632E2,1.513814E0,2.089003E0,2.3191316E2,1.6146222E2,2.2210872E2,1.5967611E1],"tree_param":{"num_deleted":"0","num_feature":"6","num_nodes":"19","size_leaf_vector":"1"}},{"base_weights":[-1.4573959E-2,1.7916301E-1,-1.07164696E-1,4.938544E-1,-1.8197194E-1,1.0972906E-1,7.486642E-1,7.1978885E-1,-4.11778E-1,-6.51227E-1,5.961739E-1,1.0177593E0,3.233973E-1,-1.11476675E-1,1.0165384E0,-1.274498E-1,-8.325062E-2,-1.9462672E-1,2.9779483E-2,7.97904E-2,-2.1207409E-1,-1.2383037E-1,1.0734643E-1,5.9925485E-2,-1.6387634E-1,-7.0453845E-2,1.0771363E-1,1.6723316E-2,-1.2093208E-1],"categories":[],"categories_nodes":[],"categories_segments":[],"categories_sizes":[],"default_left":[0,0,0,0,0,0,0,0,0,0,0,0,0,0,0,0,0,0,0,0,0,0,0,0,0,0,0,0,0],"id":18,"left_children":[1,3,-1,5,7,9,11,13,15,17,19,21,23,-1,25,-1,27,-1,-1,-1,-1,-1,-1,-1,-1,-1,-1,-1,-1],"loss_changes":[1.6549834E2,7.771193E1,0E0,3.5667732E1,6.635509E1,5.4740494E1,2.4779839E1,3.657484E1,7.207374E1,7.154083E1,5.107184E1,1.815892E1,4.7801178E1,0E0,6.657791E0,0E0,5.2526054E1,0E0,0E0,0E0,0E0,0E0,0E0,0E0,0E0,0E0,0E0,0E0,0E0],"parents":[2147483647,0,0,1,1,3,3,4,4,5,5,6,6,7,7,8,8,9,9,10,10,11,11,12,12,14,14,16,16],"right_children":[2,4,-1,6,8,10,12,14,16,18,20,22,24,-1,26,-1,28,-1,-1,-1,-1,-1,-1,-1,-1,-1,-1,-1,-1],"split_conditions":[6.7E1,1E0,-1.07164696E-1,2.55228E1,2.22E1,2.2064512E0,4.8E1,2.2182436E0,3.242857E1,3.3872726E1,1.3828572E2,1.38125E2,2.6818182E1,-1.11476675E-1,2.9325E1,-1.274498E-1,3.6287125E1,-1.9462672E-1,2.9779483E-2,7.97904E-2,-2.1207409E-1,-1.2383037E-1,1.0734643E-1,5.9925485E-2,-1.6387634E-1,-7.0453845E-2,1.0771363E-1,1.6723316E-2,-1.2093208E-1],"split_indices":[0,1,0,5,5,2,0,2,3,3,4,4,5,0,3,0,3,0,0,0,0,0,0,0,0,0,0,0,0],"split_type":[0,0,0,0,0,0,0,0,0,0,0,0,0,0,0,0,0,0,0,0,0,0,0,0,0,0,0,0,0],"sum_hessian":[8.06183E2,6.820158E2,1.24167175E2,3.6424597E2,3.1776984E2,1.4583324E2,2.1841273E2,6.410178E1,2.5366806E2,5.673801E1,8.909523E1,1.3291515E2,8.54976E1,8.54132E0,5.5560467E1,6.916358E1,1.8450447E2,2.3550314E1,3.31877E1,8.359467E1,5.500557E0,2.691203E0,1.3022394E2,7.556817E1,9.929432E0,1.5282869E0,5.4032177E1,1.5162778E2,3.2876694E1],"tree_param":{"num_deleted":"0","num_feature":"6","num_nodes":"29","size_leaf_vector":"1"}},{"base_weights":[-1.5114718E-2,1.6842997E-1,-1.06118076E-1,-1.0489223E0,2.5717002E-1,-1.14683844E-1,-3.9573446E-1,3.0788293E-1,-1.2621546E-1,-1.1957814E-1,4.2200813E-1,3.443782E-1,-1.6018592E-1,7.122051E-2,4.2823968E-3,1.5278294E-2,8.660822E-2],"categories":[],"categories_nodes":[],"categories_segments":[],"categories_sizes":[],"default_left":[0,0,0,0,0,0,0,0,0,0,0,0,0,0,0,0,0],"id":19,"left_children":[1,3,-1,5,7,-1,9,11,-1,-1,13,15,-1,-1,-1,-1,-1],"loss_changes":[1.4716559E2,7.071962E1,0E0,2.3926392E0,4.7283875E1,0E0,5.299343E0,4.165756E1,0E0,0E0,4.4964576E-1,5.7796936E1,0E0,0E0,0E0,0E0,0E0],"parents":[2147483647,0,0,1,1,3,3,4,4,6,6,7,7,10,10,11,11],"right_children":[2,4,-1,6,8,-1,10,12,-1,-1,14,16,-1,-1,-1,-1,-1],"split_conditions":[6.7E1,1.5096774E0,-1.06118076E-1,1.5E0,3.7604317E1,-1.14683844E-1,3.518891E1,3.2666667E0,-1.2621546E-1,-1.1957814E-1,3.7604317E1,2.7579997E0,-1.6018592E-1,7.122051E-2,4.2823968E-3,1.5278294E-2,8.660822E-2],"split_indices":[0,2,0,2,3,0,3,2,0,0,3,2,0,0,0,0,0],"split_type":[0,0,0,0,0,0,0,0,0,0,0,0,0,0,0,0,0],"sum_hessian":[7.645572E2,6.51145E2,1.1341214E2,4.3505703E1,6.0763934E2,3.717694E1,6.3287625E0,5.8878394E2,1.8855423E1,2.9653177E0,3.3634448E0,5.785475E2,1.0236401E1,1.407784E0,1.9556608E0,4.240927E2,1.5445479E2],"tree_param":{"num_deleted":"0","num_feature":"6","num_nodes":"17","size_leaf_vector":"1"}},{"base_weights":[-1.5285801E-2,1.548384E-1,-1.0515475E-1,4.5231512E-1,-1.8217102E-1,7.5564295E-2,7.0932823E-1,5.3781205E-1,-4.3969822E-1,-6.0583484E-1,5.367853E-1,9.8809665E-1,2.948754E-1,-1.172745E-1,8.0383486E-1,-6.9306093E-1,3.0538327E-1,-1.8039429E-1,2.7439421E-2,7.3657505E-2,-1.9386129E-1,-1.15305424E-1,1.0468861E-1,5.566269E-2,-1.5707502E-1,9.281912E-2,-1.00958526E-1,-1.2706994E-1,-1.4259805E-2,7.414993E-2,-1.4284599E-1],"categories":[],"categories_nodes":[],"categories_segments":[],"categories_sizes":[],"default_left":[0,0,0,0,0,0,0,0,0,0,0,0,0,0,0,0,0,0,0,0,0,0,0,0,0,0,0,0,0,0,0],"id":20,"left_children":[1,3,-1,5,7,9,11,13,15,17,19,21,23,-1,25,27,29,-1,-1,-1,-1,-1,-1,-1,-1,-1,-1,-1,-1,-1,-1],"loss_changes":[1.3066676E2,6.3917747E1,0E0,3.2723015E1,5.572182E1,4.3818233E1,2.2943626E1,3.702232E1,4.1923843E1,5.9902985E1,4.250583E1,1.6288261E1,4.1062393E1,0E0,1.6544617E1,5.234616E1,4.398227E1,0E0,0E0,0E0,0E0,0E0,0E0,0E0,0E0,0E0,0E0,0E0,0E0,0E0,0E0],"parents":[2147483647,0,0,1,1,3,3,4,4,5,5,6,6,7,7,8,8,9,9,10,10,11,11,12,12,14,14,15,15,16,16],"right_children":[2,4,-1,6,8,10,12,14,16,18,20,22,24,-1,26,28,30,-1,-1,-1,-1,-1,-1,-1,-1,-1,-1,-1,-1,-1,-1],"split_conditions":[6.7E1,1E0,-1.0515475E-1,2.55228E1,1.3466667E2,2.2064512E0,4.8E1,1.337E2,2.7142856E0,3.3872726E1,1.3828572E2,1.38125E2,2.6818182E1,-1.172745E-1,2.5138407E1,3.4582043E1,5.5E1,-1.8039429E-1,2.7439421E-2,7.3657505E-2,-1.9386129E-1,-1.15305424E-1,1.0468861E-1,5.566269E-2,-1.5707502E-1,9.281912E-2,-1.00958526E-1,-1.2706994E-1,-1.4259805E-2,7.414993E-2,-1.4284599E-1],"split_indices":[0,1,0,5,4,2,0,4,2,3,4,4,5,0,5,3,0,0,0,0,0,0,0,0,0,0,0,0,0,0,0],"split_type":[0,0,0,0,0,0,0,0,0,0,0,0,0,0,0,0,0,0,0,0,0,0,0,0,0,0,0,0,0,0,0],"sum_hessian":[7.3926654E2,6.35746E2,1.03520515E2,3.3749686E2,2.9824915E2,1.3739136E2,2.001055E2,7.828765E1,2.1996149E2,5.5331745E1,8.2059616E1,1.1880859E2,8.12969E1,1.0077802E1,6.820985E1,1.6419672E2,5.5764782E1,2.2989965E1,3.234178E1,7.658118E1,5.478437E0,2.6775372E0,1.1613106E2,7.190948E1,9.3874235E0,6.428932E1,3.9205222E0,7.9482185E1,8.471452E1,4.501455E1,1.0750234E1],"tree_param":{"num_deleted":"0","num_feature":"6","num_nodes":"31","size_leaf_vector":"1"}},{"base_weights":[-1.590223E-2,1.4556761E-1,-1.0426132E-1,-1.0251907E0,2.2590214E-1,-1.0874507E0,-1.4688817E-1,2.73666E-1,-1.226529E-1,-1.16290905E-1,-1.9871917E-1,-6.9745384E-2,6.256338E-2,-1.5172386E-1,3.0887663E-1,6.590657E-2,-8.481191E-2,3.4299787E-2,-1.5448742E-1],"categories":[],"categories_nodes":[],"categories_segments":[],"categories_sizes":[],"default_left":[0,0,0,0,0,0,0,0,0,0,0,0,0,0,0,0,0,0,0],"id":21,"left_children":[1,3,-1,5,7,9,11,13,-1,-1,15,-1,-1,-1,17,-1,-1,-1,-1],"loss_changes":[1.1643043E2,5.7316837E1,0E0,1.9813232E0,3.9795307E1,2.210373E0,2.03044E0,3.5246017E1,0E0,0E0,2.8179283E0,0E0,0E0,0E0,3.4793808E1,0E0,0E0,0E0,0E0],"parents":[2147483647,0,0,1,1,3,3,4,4,5,5,6,6,7,7,10,10,14,14],"right_children":[2,4,-1,6,8,10,12,14,-1,-1,16,-1,-1,-1,18,-1,-1,-1,-1],"split_conditions":[6.7E1,1.5096774E0,-1.0426132E-1,6.6E1,3.7604317E1,1.412089E2,1.4888889E0,1.337E2,-1.226529E-1,-1.16290905E-1,1.4142186E2,-6.9745384E-2,6.256338E-2,-1.5172386E-1,3.2666667E0,6.590657E-2,-8.481191E-2,3.4299787E-2,-1.5448742E-1],"split_indices":[0,2,0,0,3,4,2,4,0,0,4,0,0,0,2,0,0,0,0],"split_type":[0,0,0,0,0,0,0,0,0,0,0,0,0,0,0,0,0,0,0],"sum_hessian":[7.0039136E2,6.059521E2,9.4439285E1,3.815386E1,5.677982E2,3.540592E1,2.7479403E0,5.5050616E2,1.7292067E1,3.235066E1,3.055257E0,1.6611993E0,1.086741E0,9.80313E0,5.40703E2,1.3100039E0,1.7452532E0,5.3173065E2,8.97237E0],"tree_param":{"num_deleted":"0","num_feature":"6","num_nodes":"19","size_leaf_vector":"1"}},{"base_weights":[-1.6620303E-2,1.3251485E-1,-1.0342588E-1,4.127245E-1,-1.8157446E-1,3.924577E-2,6.6326E-1,9.898072E-4,-1.15987554E-1,-6.516706E-1,5.006238E-1,9.512714E-1,2.6821095E-1,5.9694594E-1,-2.6349273E-1,-1.7648298E-1,2.5206456E-2,6.944757E-2,-1.8089871E-1,-1.1359917E-1,1.0206629E-1,-6.0310967E-2,8.3611816E-2,-1.09392695E-1,7.914682E-2,-6.3674815E-2,3.773863E-2],"categories":[],"categories_nodes":[],"categories_segments":[],"categories_sizes":[],"default_left":[0,0,0,0,0,0,0,0,0,0,0,0,0,0,0,0,0,0,0,0,0,0,0,0,0,0,0],"id":22,"left_children":[1,3,-1,5,7,9,11,13,-1,15,17,19,21,23,25,-1,-1,-1,-1,-1,-1,-1,-1,-1,-1,-1,-1],"loss_changes":[1.0343866E2,5.2401802E1,0E0,2.9404217E1,5.0192566E1,4.0919693E1,2.1156288E1,3.76435E1,0E0,5.2175804E1,3.5695206E1,1.6866371E1,4.045707E1,2.5011124E1,3.9809933E1,0E0,0E0,0E0,0E0,0E0,0E0,0E0,0E0,0E0,0E0,0E0,0E0],"parents":[2147483647,0,0,1,1,3,3,4,4,5,5,6,6,7,7,9,9,10,10,11,11,12,12,13,13,14,14],"right_children":[2,4,-1,6,8,10,12,14,-1,16,18,20,22,24,26,-1,-1,-1,-1,-1,-1,-1,-1,-1,-1,-1,-1],"split_conditions":[6.7E1,1E0,-1.0342588E-1,2.540153E1,2.5729565E1,2.2064512E0,4.8E1,1.35E2,-1.15987554E-1,3.4190964E1,1.3828572E2,1.38125E2,6.4E1,1.337E2,2.5151827E1,-1.7648298E-1,2.5206456E-2,6.944757E-2,-1.8089871E-1,-1.1359917E-1,1.0206629E-1,-6.0310967E-2,8.3611816E-2,-1.09392695E-1,7.914682E-2,-6.3674815E-2,3.773863E-2],"split_indices":[0,1,0,5,5,2,0,4,0,3,4,4,0,4,5,0,0,0,0,0,0,0,0,0,0,0,0],"split_type":[0,0,0,0,0,0,0,0,0,0,0,0,0,0,0,0,0,0,0,0,0,0,0,0,0,0,0],"sum_hessian":[6.796652E2,5.935501E2,8.611512E1,3.1352756E2,2.8002255E2,1.26342575E2,1.8718498E2,2.3682649E2,4.3196053E1,5.0422356E1,7.592022E1,1.0744441E2,7.974058E1,7.2409584E1,1.644169E2,2.2166435E1,2.825592E1,7.068661E1,5.2336082E0,2.962518E0,1.04481895E2,3.1440504E1,4.830007E1,6.9936876E0,6.541589E1,1.03906815E2,6.0510094E1],"tree_param":{"num_deleted":"0","num_feature":"6","num_nodes":"27","size_leaf_vector":"1"}},{"base_weights":[-1.6360436E-2,1.2392233E-1,-1.0263789E-1,-2.1355818E-1,3.7195152E-1,-5.453434E-1,6.285017E-1,9.3778914E-1,1.6707705E-1,-1.2361497E0,1.7254116E-1,7.7286845E-1,-1.610164E-1,-9.039362E-2,1.0025998E0,-7.6021856E-1,5.8287036E-1,-1.6559467E-2,-1.450838E-1,4.4854894E-2,-1.6260032E-1,-9.620966E-2,8.596303E-2,1.0591121E-1,-9.254267E-2,-1.3471286E-1,-2.1789249E-2,8.7631464E-2,-2.673626E-2],"categories":[],"categories_nodes":[],"categories_segments":[],"categories_sizes":[],"default_left":[0,0,0,0,0,0,0,0,0,0,0,0,0,0,0,0,0,0,0,0,0,0,0,0,0,0,0,0,0],"id":23,"left_children":[1,3,-1,5,7,9,11,13,15,17,19,21,-1,-1,23,25,27,-1,-1,-1,-1,-1,-1,-1,-1,-1,-1,-1,-1],"loss_changes":[9.236182E1,4.799835E1,0E0,6.827255E1,3.8137215E1,8.697628E1,2.3605343E1,1.1361748E1,9.44195E1,2.0279709E1,4.3754864E1,1.0712631E1,0E0,0E0,1.0251305E1,2.3862095E1,4.2361103E1,0E0,0E0,0E0,0E0,0E0,0E0,0E0,0E0,0E0,0E0,0E0,0E0],"parents":[2147483647,0,0,1,1,3,3,4,4,5,5,6,6,7,7,8,8,9,9,10,10,11,11,14,14,15,15,16,16],"right_children":[2,4,-1,6,8,10,12,14,16,18,20,22,-1,-1,24,26,28,-1,-1,-1,-1,-1,-1,-1,-1,-1,-1,-1,-1],"split_conditions":[6.7E1,2.0333333E0,-1.0263789E-1,6.5E1,2.2333334E1,3.5427563E1,1.3903267E2,2.8225E1,1.3805826E2,1.340425E2,2.0252252E0,2.3923077E1,-1.610164E-1,-9.039362E-2,3.4005127E1,6E1,5.7E1,-1.6559467E-2,-1.450838E-1,4.4854894E-2,-1.6260032E-1,-9.620966E-2,8.596303E-2,1.0591121E-1,-9.254267E-2,-1.3471286E-1,-2.1789249E-2,8.7631464E-2,-2.673626E-2],"split_indices":[0,2,0,0,5,3,4,3,4,4,2,5,0,0,3,0,0,0,0,0,0,0,0,0,0,0,0,0,0],"split_type":[0,0,0,0,0,0,0,0,0,0,0,0,0,0,0,0,0,0,0,0,0,0,0,0,0,0,0,0,0],"sum_hessian":[6.4996906E2,5.7147363E2,7.849541E1,2.4214221E2,3.2933145E2,1.7395392E2,6.818829E1,8.659354E1,2.4273792E2,8.828095E1,8.5672966E1,6.467246E1,3.515826E0,2.5035238E0,8.409001E1,7.489033E1,1.6784758E2,1.5042424E1,7.323853E1,7.492539E1,1.0747578E1,2.5996015E0,6.2072865E1,8.2133286E1,1.9567294E0,3.5254078E1,3.963625E1,1.247585E2,4.308908E1],"tree_param":{"num_deleted":"0","num_feature":"6","num_nodes":"29","size_leaf_vector":"1"}},{"base_weights":[-1.6619528E-2,1.1562364E-1,-1.0188782E-1,-9.996396E-1,1.8639162E-1,-1.061125E0,-1.6935295E-1,8.6695635E-1,9.031283E-2,-1.1324115E-1,-2.0390867E-1,4.9680863E-2,-6.590424E-2,-1.3573451E-1,1.0315939E0,-3.1615308E-1,3.5624552E-1,5.9703458E-2,-8.146482E-2,1.0730728E-1,-6.713495E-2,4.8644636E-2,-5.0103754E-2,6.1699893E-2,-1.2368474E-2],"categories":[],"categories_nodes":[],"categories_segments":[],"categories_sizes":[],"default_left":[0,0,0,0,0,0,0,0,0,0,0,0,0,0,0,0,0,0,0,0,0,0,0,0,0],"id":24,"left_children":[1,3,-1,5,7,9,11,13,15,-1,17,-1,-1,-1,19,21,23,-1,-1,-1,-1,-1,-1,-1,-1],"loss_changes":[8.24721E1,4.3580547E1,0E0,1.5031013E0,3.378298E1,1.6329346E0,1.4569801E0,2.4818012E1,4.9284523E1,0E0,2.228464E0,0E0,0E0,0E0,4.96624E0,2.7019516E1,3.4548477E1,0E0,0E0,0E0,0E0,0E0,0E0,0E0,0E0],"parents":[2147483647,0,0,1,1,3,3,4,4,5,5,6,6,7,7,8,8,10,10,14,14,15,15,16,16],"right_children":[2,4,-1,6,8,10,12,14,16,-1,18,-1,-1,-1,20,22,24,-1,-1,-1,-1,-1,-1,-1,-1],"split_conditions":[6.7E1,1.5096774E0,-1.0188782E-1,6.6E1,2.15E1,1.412089E2,1.3476706E2,2.302381E0,2.5100927E1,-1.1324115E-1,1.4142186E2,4.9680863E-2,-6.590424E-2,-1.3573451E-1,1.3778154E2,1.3412163E2,1E0,5.9703458E-2,-8.146482E-2,1.0730728E-1,-6.713495E-2,4.8644636E-2,-5.0103754E-2,6.1699893E-2,-1.2368474E-2],"split_indices":[0,2,0,0,5,4,4,2,5,0,4,0,0,0,4,4,1,0,0,0,0,0,0,0,0],"split_type":[0,0,0,0,0,0,0,0,0,0,0,0,0,0,0,0,0,0,0,0,0,0,0,0,0],"sum_hessian":[6.2034546E2,5.488164E2,7.152902E1,3.1963545E1,5.168529E2,2.9500885E1,2.4626603E0,6.294744E1,4.5390543E2,2.6939548E1,2.5613363E0,1.0371748E0,1.4254855E0,3.8388622E0,5.9108578E1,1.7944426E2,2.7446118E2,1.117825E0,1.4435114E0,5.806417E1,1.0444051E0,3.3291576E1,1.461527E2,1.7765366E2,9.6807526E1],"tree_param":{"num_deleted":"0","num_feature":"6","num_nodes":"25","size_leaf_vector":"1"}},{"base_weights":[-1.5919993E-2,1.0734541E-1,-1.01167046E-1,-9.804225E-1,1.7289184E-1,-1.0777117E-1,-3.7294784E-1,8.480452E-1,8.3392E-2,-1.0427667E-1,2.940706E-1,-1.3020778E-1,1.0134813E0,-1.0285024E-1,6.331539E-1,5.951959E-2,-6.22978E-3,1.05664395E-1,-6.424179E-2,-1.0328906E-3,-1.1935478E-1,8.4057115E-2,-1.7539667E-1],"categories":[],"categories_nodes":[],"categories_segments":[],"categories_sizes":[],"default_left":[0,0,0,0,0,0,0,0,0,0,0,0,0,0,0,0,0,0,0,0,0,0,0],"id":25,"left_children":[1,3,-1,5,7,-1,9,11,13,-1,15,-1,17,19,21,-1,-1,-1,-1,-1,-1,-1,-1],"loss_changes":[7.372874E1,3.8288338E1,0E0,1.402689E0,3.0450298E1,0E0,2.8731136E0,2.2310188E1,4.5841747E1,0E0,4.2964786E-1,0E0,4.63533E0,3.3774605E1,5.7558968E1,0E0,0E0,0E0,0E0,0E0,0E0,0E0,0E0],"parents":[2147483647,0,0,1,1,3,3,4,4,6,6,7,7,8,8,10,10,12,12,13,13,14,14],"right_children":[2,4,-1,6,8,-1,10,12,14,-1,16,-1,18,20,22,-1,-1,-1,-1,-1,-1,-1,-1],"split_conditions":[6.7E1,1.5096774E0,-1.01167046E-1,1.5E0,2.15E1,-1.0777117E-1,3.518891E1,2.302381E0,1.4040295E2,-1.0427667E-1,3.7604317E1,-1.3020778E-1,1.3778154E2,3.6230183E1,6E1,5.951959E-2,-6.22978E-3,1.05664395E-1,-6.424179E-2,-1.0328906E-3,-1.1935478E-1,8.4057115E-2,-1.7539667E-1],"split_indices":[0,2,0,2,5,0,3,2,4,0,3,0,4,3,0,0,0,0,0,0,0,0,0],"split_type":[0,0,0,0,0,0,0,0,0,0,0,0,0,0,0,0,0,0,0,0,0,0,0],"sum_hessian":[5.987979E2,5.336311E2,6.516678E1,2.9534658E1,5.0409647E2,2.4790316E1,4.744343E0,5.801063E1,4.4608585E2,2.0861297E0,2.6582134E0,3.653724E0,5.4356907E1,3.3381323E2,1.1227261E2,1.0775399E0,1.5806735E0,5.332873E1,1.0281743E0,3.0864136E2,2.5171862E1,1.03893196E2,8.379418E0],"tree_param":{"num_deleted":"0","num_feature":"6","num_nodes":"23","size_leaf_vector":"1"}},{"base_weights":[-1.5926218E-2,9.882997E-2,-1.0046764E-1,3.4294125E-1,-1.689961E-1,-1.8404081E-1,3.8094664E-1,-1.3212411E-3,-1.1285496E-1,7.79298E-1,9.979369E-2,-1.09520935E-1,1.2430854E-1,-1.4242887E-1,8.611032E-2,2.0119159E-2,-1.495333E-1,2.5205305E-2,-1.1263152E-1],"categories":[],"categories_nodes":[],"categories_segments":[],"categories_sizes":[],"default_left":[0,0,0,0,0,0,0,0,0,0,0,0,0,0,0,0,0,0,0],"id":26,"left_children":[1,3,-1,5,7,-1,9,11,-1,13,15,-1,17,-1,-1,-1,-1,-1,-1],"loss_changes":[6.586183E1,3.4069714E1,0E0,2.3312061E1,4.0017647E1,0E0,3.0011143E1,2.9371078E1,0E0,2.123822E1,2.5960264E1,0E0,3.0912651E1,0E0,0E0,0E0,0E0,0E0,0E0],"parents":[2147483647,0,0,1,1,3,3,4,4,6,6,7,7,9,9,10,10,12,12],"right_children":[2,4,-1,6,8,-1,10,12,-1,14,16,-1,18,-1,-1,-1,-1,-1,-1],"split_conditions":[6.7E1,1E0,-1.0046764E-1,3.4E1,2.5729565E1,-1.8404081E-1,4.8E1,2.9977264E1,-1.1285496E-1,3.0725E1,2.6818182E1,-1.09520935E-1,3.6287125E1,-1.4242887E-1,8.611032E-2,2.0119159E-2,-1.495333E-1,2.5205305E-2,-1.1263152E-1],"split_indices":[0,1,0,0,5,0,0,3,0,3,5,0,3,0,0,0,0,0,0],"split_type":[0,0,0,0,0,0,0,0,0,0,0,0,0,0,0,0,0,0,0],"sum_hessian":[5.785834E2,5.1922156E2,5.936178E1,2.7149017E2,2.4773141E2,3.833553E0,2.6765662E2,2.1173387E2,3.5997543E1,1.10012985E2,1.5764363E2,2.1016912E1,1.9071695E2,3.3504796E0,1.06662506E2,1.4904321E2,8.600405E0,1.7376613E2,1.695082E1],"tree_param":{"num_deleted":"0","num_feature":"6","num_nodes":"19","size_leaf_vector":"1"}},{"base_weights":[-1.6859533E-2,9.030463E-2,-9.9782296E-2,-2.0160335E-1,3.068597E-1,-5.219071E-1,5.9730846E-1,8.8210434E-1,1.20836325E-1,-1.1907861E0,1.730402E-1,7.3278916E-1,-1.5631634E-1,9.4299054E-1,-1.01555996E-1,-6.693975E-1,5.146823E-1,-1.4782946E-2,-1.4152558E-1,4.4787694E-2,-1.541869E-1,-9.04968E-2,8.1382595E-2,9.957089E-2,-1.1070817E-1,-3.3436444E-2,-1.572702E-1,8.2941376E-2,-2.0793894E-2],"categories":[],"categories_nodes":[],"categories_segments":[],"categories_sizes":[],"default_left":[0,0,0,0,0,0,0,0,0,0,0,0,0,0,0,0,0,0,0,0,0,0,0,0,0,0,0,0,0],"id":27,"left_children":[1,3,-1,5,7,9,11,13,15,17,19,21,-1,23,-1,25,27,-1,-1,-1,-1,-1,-1,-1,-1,-1,-1,-1,-1],"loss_changes":[5.8783607E1,3.193798E1,0E0,5.5422913E1,3.0914158E1,7.1914185E1,1.9322649E1,9.123981E0,6.888078E1,1.8223358E1,3.6761436E1,8.582481E0,0E0,8.559586E0,0E0,2.1772617E1,3.372546E1,0E0,0E0,0E0,0E0,0E0,0E0,0E0,0E0,0E0,0E0,0E0,0E0],"parents":[2147483647,0,0,1,1,3,3,4,4,5,5,6,6,7,7,8,8,9,9,10,10,11,11,13,13,15,15,16,16],"right_children":[2,4,-1,6,8,10,12,14,16,18,20,22,-1,24,-1,26,28,-1,-1,-1,-1,-1,-1,-1,-1,-1,-1,-1,-1],"split_conditions":[6.7E1,2.0333333E0,-9.9782296E-2,6.5E1,2.2333334E1,3.5427563E1,1.3903267E2,6.3E1,1.3805826E2,1.340425E2,2.0252252E0,2.3923077E1,-1.5631634E-1,3.2666667E0,-1.01555996E-1,2.5375E1,5.6E1,-1.4782946E-2,-1.4152558E-1,4.4787694E-2,-1.541869E-1,-9.04968E-2,8.1382595E-2,9.957089E-2,-1.1070817E-1,-3.3436444E-2,-1.572702E-1,8.2941376E-2,-2.0793894E-2],"split_indices":[0,2,0,0,5,3,4,0,4,4,2,5,0,2,0,5,0,0,0,0,0,0,0,0,0,0,0,0,0],"split_type":[0,0,0,0,0,0,0,0,0,0,0,0,0,0,0,0,0,0,0,0,0,0,0,0,0,0,0,0,0],"sum_hessian":[5.573257E2,5.0325604E2,5.4069656E1,2.143668E2,2.8888925E2,1.5326553E2,6.1101265E1,6.967857E1,2.1921066E2,7.773397E1,7.553157E1,5.81176E1,2.983668E0,6.7999886E1,1.678686E0,7.268065E1,1.4653001E2,1.4060946E1,6.3673023E1,6.5735435E1,9.796134E0,2.2607296E0,5.585687E1,6.67965E1,1.2033912E0,5.401631E1,1.866434E1,1.01970055E2,4.4559963E1],"tree_param":{"num_deleted":"0","num_feature":"6","num_nodes":"29","size_leaf_vector":"1"}},{"base_weights":[-1.7465472E-2,8.347676E-2,-9.910415E-2,-9.6122104E-1,1.4268728E-1,-1.0239754E0,-1.626193E-1,8.052235E-1,6.2588215E-2,-1.09521545E-1,-1.8459071E-1,-5.7284392E-2,3.3035744E-2,-1.2348896E-1,9.7875077E-1,-2.931941E-1,3.1537864E-1,5.1001776E-2,-7.6289825E-2,1.0258873E-1,-5.3906597E-2,4.3904524E-2,-4.597281E-2,-1.3459054E-2,5.3140827E-2],"categories":[],"categories_nodes":[],"categories_segments":[],"categories_sizes":[],"default_left":[0,0,0,0,0,0,0,0,0,0,0,0,0,0,0,0,0,0,0,0,0,0,0,0,0],"id":28,"left_children":[1,3,-1,5,7,9,11,13,15,-1,17,-1,-1,-1,19,21,23,-1,-1,-1,-1,-1,-1,-1,-1],"loss_changes":[5.2567913E1,3.0126467E1,0E0,1.1431732E0,2.4344284E1,1.2354164E0,8.1469387E-1,1.8731022E1,3.7073914E1,0E0,1.6277099E0,0E0,0E0,0E0,3.8565178E0,2.1092815E1,2.3485563E1,0E0,0E0,0E0,0E0,0E0,0E0,0E0,0E0],"parents":[2147483647,0,0,1,1,3,3,4,4,5,5,6,6,7,7,8,8,10,10,14,14,15,15,16,16],"right_children":[2,4,-1,6,8,10,12,14,16,-1,18,-1,-1,-1,20,22,24,-1,-1,-1,-1,-1,-1,-1,-1],"split_conditions":[6.7E1,1.5096774E0,-9.910415E-2,6.6E1,2.15E1,1.412089E2,3.36495E1,2.302381E0,2.5100927E1,-1.09521545E-1,1.4150273E2,-5.7284392E-2,3.3035744E-2,-1.2348896E-1,1.3775E2,1.3412163E2,3.2363636E1,5.1001776E-2,-7.6289825E-2,1.0258873E-1,-5.3906597E-2,4.3904524E-2,-4.597281E-2,-1.3459054E-2,5.3140827E-2],"split_indices":[0,2,0,0,5,4,3,2,5,0,4,0,0,0,4,4,3,0,0,0,0,0,0,0,0],"split_type":[0,0,0,0,0,0,0,0,0,0,0,0,0,0,0,0,0,0,0,0,0,0,0,0,0],"sum_hessian":[5.330648E2,4.838161E2,4.9248726E1,2.5133415E1,4.5868268E2,2.3040665E1,2.0927505E0,4.8496113E1,4.1018655E2,2.0957203E1,2.0834615E0,1.0538183E0,1.0389322E0,3.3221452E0,4.517397E1,1.703179E2,2.3986865E2,1.0002006E0,1.083261E0,4.4127666E1,1.0463006E0,3.1255058E1,1.3906285E2,7.792833E1,1.6194032E2],"tree_param":{"num_deleted":"0","num_feature":"6","num_nodes":"25","size_leaf_vector":"1"}},{"base_weights":[-1.672507E-2,7.661589E-2,-9.842681E-2,3.062343E-1,-1.7560194E-1,6.3388777E-1,8.476553E-2,-1.9682504E-2,-1.11221984E-1,-1.6289814E-1,7.376897E-1,1.7595291E-1,-1.3929911E-1,-1.378952E-1,7.5014725E-2,-1.3159233E-1,8.189728E-2,-1.6931002E-1,2.2886163E-2,-1.0457839E-1,1.8506004E-2],"categories":[],"categories_nodes":[],"categories_segments":[],"categories_sizes":[],"default_left":[0,0,0,0,0,0,0,0,0,0,0,0,0,0,0,0,0,0,0,0,0],"id":29,"left_children":[1,3,-1,5,7,9,11,13,-1,-1,15,17,-1,-1,19,-1,-1,-1,-1,-1,-1],"loss_changes":[4.707424E1,2.7594639E1,0E0,1.8036072E1,3.316612E1,2.4781898E1,2.044492E1,2.5312168E1,0E0,0E0,1.7214844E1,1.4437496E1,0E0,0E0,2.2892294E1,0E0,0E0,0E0,0E0,0E0,0E0],"parents":[2147483647,0,0,1,1,3,3,4,4,5,5,6,6,7,7,10,10,11,11,14,14],"right_children":[2,4,-1,6,8,10,12,14,-1,-1,16,18,-1,-1,20,-1,-1,-1,-1,-1,-1],"split_conditions":[6.7E1,1E0,-9.842681E-2,4.8E1,2.5729565E1,3.4E1,2.6818182E1,4.8E1,-1.11221984E-1,-1.6289814E-1,3.0725E1,1.337E2,-1.3929911E-1,-1.378952E-1,2.9977264E1,-1.3159233E-1,8.189728E-2,-1.6931002E-1,2.2886163E-2,-1.0457839E-1,1.8506004E-2],"split_indices":[0,1,0,0,5,0,5,0,0,0,3,4,0,0,3,0,0,0,0,0,0],"split_type":[0,0,0,0,0,0,0,0,0,0,0,0,0,0,0,0,0,0,0,0,0],"sum_hessian":[5.194087E2,4.7454874E2,4.485993E1,2.4829108E2,2.2625766E2,9.938826E1,1.4890282E2,1.9484302E2,3.1414642E1,3.7147167E0,9.567354E1,1.410783E2,7.824533E0,1.1806901E1,1.8303612E2,3.064318E0,9.260922E1,3.0302792E0,1.38048E2,1.5604355E1,1.6743176E2],"tree_param":{"num_deleted":"0","num_feature":"6","num_nodes":"21","size_leaf_vector":"1"}},{"base_weights":[-1.79223E-2,6.900924E-2,-9.7744155E-1,-9.464594E-1,1.2302399E-1,-9.997196E-2,-4.5951054E-1,-1.0125953E0,-1.5140511E-2,1.5615764E-1,-1.4546318E-1,-1.6111048E-3,-6.2680714E-2,-1.0803417E-1,-2.0826181E-2,1.4908596E-2,6.452225E-1,-3.6868583E-2,2.9805748E-2,8.458952E-2,-1.3533913E-1],"categories":[],"categories_nodes":[],"categories_segments":[],"categories_sizes":[],"default_left":[0,0,0,0,0,0,0,0,0,0,0,0,0,0,0,0,0,0,0,0,0],"id":30,"left_children":[1,3,5,7,9,-1,11,13,-1,15,-1,-1,-1,-1,-1,17,19,-1,-1,-1,-1],"loss_changes":[4.203934E1,2.5474703E1,2.36969E-2,1.0804939E0,2.3219822E1,0E0,2.552548E-1,9.45837E-1,0E0,2.981279E1,0E0,0E0,0E0,0E0,0E0,3.6603146E1,3.9935764E1,0E0,0E0,0E0,0E0],"parents":[2147483647,0,0,1,1,2,2,3,3,4,4,6,6,7,7,9,9,15,15,16,16],"right_children":[2,4,6,8,10,-1,12,14,-1,16,-1,-1,-1,-1,-1,18,20,-1,-1,-1,-1],"split_conditions":[6.7E1,1.5096774E0,3.6230183E1,6.6E1,3.2666667E0,-9.997196E-2,7.2E1,1.412089E2,-1.5140511E-2,2.7579997E0,-1.4546318E-1,-1.6111048E-3,-6.2680714E-2,-1.0803417E-1,-2.0826181E-2,2.5100927E1,5.9E1,-3.6868583E-2,2.9805748E-2,8.458952E-2,-1.3533913E-1],"split_indices":[0,2,3,0,2,0,0,4,0,2,0,0,0,0,0,5,0,0,0,0,0],"split_type":[0,0,0,0,0,0,0,0,0,0,0,0,0,0,0,0,0,0,0,0,0],"sum_hessian":[5.0218475E2,4.6131787E2,4.0866882E1,2.2464607E1,4.3885327E2,3.8289692E1,2.5771909E0,2.0486814E1,1.977794E0,4.3070862E2,8.144649E0,1.0063317E0,1.5708592E0,1.8578827E1,1.9079863E0,3.3498932E2,9.57193E1,1.4213312E2,1.9285619E2,8.7509575E1,8.209722E0],"tree_param":{"num_deleted":"0","num_feature":"6","num_nodes":"21","size_leaf_vector":"1"}},{"base_weights":[-1.7672114E-2,6.290704E-2,-9.706374E-1,1.06533326E-1,-1.1475476E-1,-9.947967E-2,-4.4380704E-1,-1.3565435E-1,1.4180252E-1,-1.5315411E-3,-6.1124235E-2,8.066448E-1,6.950093E-2,-1.02517866E-1,9.337304E-2,3.34192E-2,-2.9940901E-2],"categories":[],"categories_nodes":[],"categories_segments":[],"categories_sizes":[],"default_left":[0,0,0,0,0,0,0,0,0,0,0,0,0,0,0,0,0],"id":31,"left_children":[1,3,5,7,-1,-1,9,-1,11,-1,-1,13,15,-1,-1,-1,-1],"loss_changes":[3.772227E1,2.405211E1,4.5955658E-2,2.2809444E1,0E0,0E0,2.406497E-1,0E0,2.0560352E1,0E0,0E0,1.07284355E1,3.7979153E1,0E0,0E0,0E0,0E0],"parents":[2147483647,0,0,1,1,2,2,3,3,6,6,8,8,11,11,12,12],"right_children":[2,4,6,8,-1,-1,10,-1,12,-1,-1,14,16,-1,-1,-1,-1],"split_conditions":[6.7E1,3.7825E1,3.6230183E1,1.337E2,-1.1475476E-1,-9.947967E-2,7.2E1,-1.3565435E-1,1.3412163E2,-1.5315411E-3,-6.1124235E-2,2.9414286E1,1E0,-1.02517866E-1,9.337304E-2,3.34192E-2,-2.9940901E-2],"split_indices":[0,3,3,4,0,0,0,0,4,0,0,3,1,0,0,0,0],"split_type":[0,0,0,0,0,0,0,0,0,0,0,0,0,0,0,0,0],"sum_hessian":[4.8944968E2,4.5215146E2,3.7298237E1,4.3730252E2,1.4848937E1,3.48135E1,2.4847364E0,9.411733E0,4.2789078E2,1.0047932E0,1.4799434E0,4.097279E1,3.86918E2,2.1996725E0,3.8773117E1,2.253352E2,1.6158278E2],"tree_param":{"num_deleted":"0","num_feature":"6","num_nodes":"17","size_leaf_vector":"1"}},{"base_weights":[-1.7400313E-2,5.7401497E-2,-9.636963E-1,-2.0129354E-1,2.5108737E-1,-9.8988615E-2,-4.2864013E-1,-5.026439E-1,5.471983E-1,7.266109E-1,4.392811E-2,-1.454012E-3,-5.9637453E-2,-1.3801707E0,-5.232863E-3,6.8040484E-1,-1.5663838E-1,7.9356587E-1,-1.3061258E-1,-1.6274751E0,3.0487254E-1,-1.6783433E-1,-1.10139005E-1,2.3468753E-2,-1.5472208E-1,-8.379494E-2,7.555016E-2,8.6794876E-2,-1.05393104E-1,-1.7515926E-1,-5.868127E-2,3.8244158E-2,-1.4526881E-1],"categories":[],"categories_nodes":[],"categories_segments":[],"categories_sizes":[],"default_left":[0,0,0,0,0,0,0,0,0,0,0,0,0,0,0,0,0,0,0,0,0,0,0,0,0,0,0,0,0,0,0,0,0],"id":32,"left_children":[1,3,5,7,9,-1,11,13,15,17,19,-1,-1,21,23,25,-1,27,-1,29,31,-1,-1,-1,-1,-1,-1,-1,-1,-1,-1,-1,-1],"loss_changes":[3.387149E1,2.228138E1,6.689453E-2,4.3247414E1,2.5005579E1,0E0,2.2744995E-1,5.950863E1,1.65971E1,1.1524704E1,7.817454E1,0E0,0E0,2.2515182E0,3.2929028E1,6.629753E0,0E0,1.1252514E1,0E0,2.0990524E0,2.1672626E1,0E0,0E0,0E0,0E0,0E0,0E0,0E0,0E0,0E0,0E0,0E0,0E0],"parents":[2147483647,0,0,1,1,2,2,3,3,4,4,6,6,7,7,8,8,9,9,10,10,13,13,14,14,15,15,17,17,19,19,20,20],"right_children":[2,4,6,8,10,-1,12,14,16,18,20,-1,-1,22,24,26,-1,28,-1,30,32,-1,-1,-1,-1,-1,-1,-1,-1,-1,-1,-1,-1],"split_conditions":[6.7E1,2.0333333E0,3.6230183E1,6.5E1,2.3E1,-9.8988615E-2,3.739E1,3.4374084E1,1.3903267E2,3.4724556E1,1.366875E2,-1.454012E-3,-5.9637453E-2,1E0,2.0252252E0,2.3923077E1,-1.5663838E-1,6.4E1,-1.3061258E-1,3.084604E0,3.1537406E0,-1.6783433E-1,-1.10139005E-1,2.3468753E-2,-1.5472208E-1,-8.379494E-2,7.555016E-2,8.6794876E-2,-1.05393104E-1,-1.7515926E-1,-5.868127E-2,3.8244158E-2,-1.4526881E-1],"split_indices":[0,2,3,0,5,0,3,3,4,3,4,0,0,1,2,5,0,0,0,2,2,0,0,0,0,0,0,0,0,0,0,0,0],"split_type":[0,0,0,0,0,0,0,0,0,0,0,0,0,0,0,0,0,0,0,0,0,0,0,0,0,0,0,0,0,0,0,0,0],"sum_hessian":[4.7673306E2,4.4267993E2,3.4053154E1,1.895156E2,2.5316432E2,3.1653711E1,2.3994431E0,1.3535056E2,5.4165035E1,7.606151E1,1.7710281E2,1.0050001E0,1.394443E0,4.832371E1,8.702685E1,5.1591602E1,2.5734332E0,7.422623E1,1.8352803E0,2.3208797E1,1.5389403E2,2.0923973E1,2.7399738E1,7.604299E1,1.0983851E1,1.9526877E0,4.9638916E1,7.186311E1,2.3631103E0,2.0125343E1,3.083454E0,1.4813841E2,5.755611E0],"tree_param":{"num_deleted":"0","num_feature":"6","num_nodes":"33","size_leaf_vector":"1"}},{"base_weights":[-1.9398184E-2,5.0854538E-2,-9.565639E-1,-4.1451193E-2,5.7902825E-1,-9.8494455E-2,-4.1399536E-1,3.146618E-2,-1.1687948E0,8.539599E-1,-1.1627735E0,-1.3821407E-3,-5.8134425E-2,6.474126E-1,-8.608333E-2,-1.22959055E-1,-4.009031E-1,9.7890633E-1,-1.2634502E-1,1.0169005E-2,-1.3556308E0,-1.1725461E-1,9.148233E-2,-2.8369993E-2,4.0083162E-2,2.7033523E-2,-9.005659E-2,1.0100148E-1,-2.6701495E-2,-1.54776545E-2,-1.5357612E-1],"categories":[],"categories_nodes":[],"categories_segments":[],"categories_sizes":[],"default_left":[0,0,0,0,0,0,0,0,0,0,0,0,0,0,0,0,0,0,0,0,0,0,0,0,0,0,0,0,0,0,0],"id":33,"left_children":[1,3,5,7,9,-1,11,13,15,17,19,-1,-1,21,23,-1,25,27,-1,-1,29,-1,-1,-1,-1,-1,-1,-1,-1,-1,-1],"loss_changes":[3.0310623E1,2.0916628E1,8.6582184E-2,3.0099886E1,3.1553938E1,0E0,2.1436137E-1,2.4997107E1,5.455055E-1,1.5971531E1,2.3627071E0,0E0,0E0,2.7996828E1,2.8032824E1,0E0,1.2884353E0,2.329895E0,0E0,0E0,1.4897251E0,0E0,0E0,0E0,0E0,0E0,0E0,0E0,0E0,0E0,0E0],"parents":[2147483647,0,0,1,1,2,2,3,3,4,4,6,6,7,7,8,8,9,9,10,10,13,13,14,14,16,16,17,17,20,20],"right_children":[2,4,6,8,10,-1,12,14,16,18,20,-1,-1,22,24,-1,26,28,-1,-1,30,-1,-1,-1,-1,-1,-1,-1,-1,-1,-1],"split_conditions":[6.7E1,1.4101718E2,3.6230183E1,3.6784634E1,5.5E1,-9.8494455E-2,3.739E1,2.22E1,1.4064075E2,1.4304546E2,1.412089E2,-1.3821407E-3,-5.8134425E-2,2.2182436E0,3.493676E1,-1.22959055E-1,1.675E0,2.6646923E1,-1.2634502E-1,1.0169005E-2,5.6E1,-1.1725461E-1,9.148233E-2,-2.8369993E-2,4.0083162E-2,2.7033523E-2,-9.005659E-2,1.0100148E-1,-2.6701495E-2,-1.54776545E-2,-1.5357612E-1],"split_indices":[0,4,3,3,0,0,3,5,4,4,4,0,0,2,3,0,2,5,0,0,0,0,0,0,0,0,0,0,0,0,0],"split_type":[0,0,0,0,0,0,0,0,0,0,0,0,0,0,0,0,0,0,0,0,0,0,0,0,0,0,0,0,0,0,0],"sum_hessian":[4.5863992E2,4.275363E2,3.1103653E1,3.647182E2,6.281808E1,2.8782751E1,2.3209014E0,3.4347415E2,2.1244059E1,5.469463E1,8.123453E0,1.0036082E0,1.3172932E0,5.4322525E1,2.891516E2,1.9128368E1,2.1156914E0,5.2154713E1,2.539915E0,1.1375909E0,6.9858627E0,6.5255747E0,4.779695E1,2.0597365E2,8.317797E1,1.0986922E0,1.0169994E0,5.106896E1,1.0857575E0,1.1537222E0,5.8321404E0],"tree_param":{"num_deleted":"0","num_feature":"6","num_nodes":"31","size_leaf_vector":"1"}},{"base_weights":[-1.896125E-2,4.6448447E-2,-9.491985E-1,-9.2419493E-1,9.4921924E-2,-9.799295E-2,-3.9988968E-1,-9.916208E-1,-1.7215239E-2,1.2537974E-1,-1.3773267E-1,-1.3138204E-3,-5.6662858E-2,-1.0607455E-1,-1.9684333E-2,2.6391326E-3,5.863635E-1,-3.5409544E-2,2.6541695E-2,7.9458684E-2,-1.3047498E-1],"categories":[],"categories_nodes":[],"categories_segments":[],"categories_sizes":[],"default_left":[0,0,0,0,0,0,0,0,0,0,0,0,0,0,0,0,0,0,0,0,0],"id":34,"left_children":[1,3,5,7,9,-1,11,13,-1,15,-1,-1,-1,-1,-1,17,19,-1,-1,-1,-1],"loss_changes":[2.7252573E1,1.9789738E1,1.0482979E-1,8.439522E-1,1.8097263E1,0E0,2.0202714E-1,7.885437E-1,0E0,2.2209291E1,0E0,0E0,0E0,0E0,0E0,2.9248627E1,3.3537586E1,0E0,0E0,0E0,0E0],"parents":[2147483647,0,0,1,1,2,2,3,3,4,4,6,6,7,7,9,9,15,15,16,16],"right_children":[2,4,6,8,10,-1,12,14,-1,16,-1,-1,-1,-1,-1,18,20,-1,-1,-1,-1],"split_conditions":[6.7E1,1.5096774E0,3.6230183E1,6.6E1,3.2666667E0,-9.799295E-2,3.739E1,1.412089E2,-1.7215239E-2,2.7579997E0,-1.3773267E-1,-1.3138204E-3,-5.6662858E-2,-1.0607455E-1,-1.9684333E-2,2.5100927E1,5.9E1,-3.5409544E-2,2.6541695E-2,7.9458684E-2,-1.3047498E-1],"split_indices":[0,2,3,0,2,0,3,4,0,2,0,0,0,0,0,5,0,0,0,0,0],"split_type":[0,0,0,0,0,0,0,0,0,0,0,0,0,0,0,0,0,0,0,0,0],"sum_hessian":[4.4616568E2,4.177422E2,2.8423502E1,1.9010277E1,3.987319E2,2.6175201E1,2.2483E0,1.7153755E1,1.8565228E0,3.9154645E2,7.18546E0,1.002287E0,1.2460132E0,1.5473338E1,1.6804166E0,3.1000964E2,8.153682E1,1.31349E2,1.7866063E2,7.3971886E1,7.5649343E0],"tree_param":{"num_deleted":"0","num_feature":"6","num_nodes":"21","size_leaf_vector":"1"}},{"base_weights":[-1.8644707E-2,4.196668E-2,-9.4155616E-1,2.411982E-1,-1.7557266E-1,-3.8598415E-1,-9.752246E-2,5.6367874E-1,4.310699E-2,-2.8096944E-2,-1.0951858E-1,-5.5290412E-2,-1.1021798E-3,-1.4599566E-1,6.708717E-1,1.302279E-1,-1.3358389E-1,-1.3216303E-1,6.1241582E-2,-1.2122462E-1,7.551343E-2,-5.278436E-3,6.5308414E-2,-8.4053904E-2,1.8484045E-2],"categories":[],"categories_nodes":[],"categories_segments":[],"categories_sizes":[],"default_left":[0,0,0,0,0,0,0,0,0,0,0,0,0,0,0,0,0,0,0,0,0,0,0,0,0],"id":35,"left_children":[1,3,5,7,9,11,-1,13,15,17,-1,-1,-1,-1,19,21,-1,-1,23,-1,-1,-1,-1,-1,-1],"loss_changes":[2.4498661E1,1.7866571E1,1.2841034E-1,1.37153425E1,2.6710232E1,1.9401205E-1,0E0,1.8715218E1,1.6310648E1,1.9836447E1,0E0,0E0,0E0,0E0,1.3345177E1,1.2210949E1,0E0,0E0,1.808497E1,0E0,0E0,0E0,0E0,0E0,0E0],"parents":[2147483647,0,0,1,1,2,2,3,3,4,4,5,5,7,7,8,8,9,9,14,14,15,15,18,18],"right_children":[2,4,6,8,10,12,-1,14,16,18,-1,-1,-1,-1,20,22,-1,-1,24,-1,-1,-1,-1,-1,-1],"split_conditions":[6.7E1,1E0,6.8E1,4.8E1,2.5729565E1,2.4727272E1,-9.752246E-2,3.4E1,2.6818182E1,4.8E1,-1.0951858E-1,-5.5290412E-2,-1.1021798E-3,-1.4599566E-1,3.0725E1,6.6E1,-1.3358389E-1,-1.3216303E-1,3.05587E1,-1.2122462E-1,7.551343E-2,-5.278436E-3,6.5308414E-2,-8.4053904E-2,1.8484045E-2],"split_indices":[0,1,0,0,5,5,0,0,5,0,0,0,0,0,3,0,0,0,3,0,0,0,0,0,0],"split_type":[0,0,0,0,0,0,0,0,0,0,0,0,0,0,0,0,0,0,0,0,0,0,0,0,0],"sum_hessian":[4.362472E2,4.1025836E2,2.5988825E1,2.140833E2,1.9617508E2,2.1971593E0,2.3791666E1,8.076203E1,1.3332127E2,1.6995107E2,2.6224014E1,1.191975E0,1.0051842E0,3.427942E0,7.733408E1,1.2625041E2,7.0708594E0,1.0088344E1,1.5986272E2,2.7388628E0,7.459522E1,9.4183105E1,3.2067307E1,1.8570597E1,1.4129211E2],"tree_param":{"num_deleted":"0","num_feature":"6","num_nodes":"25","size_leaf_vector":"1"}},{"base_weights":[-1.9282801E-2,3.7236378E-2,-9.3353945E-1,-1.010864E-1,7.752257E-2,-9.698311E-2,-3.4751736E-2,7.2594005E-1,1.4360138E-2,-1.1177155E-1,9.1559E-1,-2.3676744E-1,2.559612E-1,9.710188E-2,-3.3174794E-2,4.8423433E-3,-7.978317E-2,3.405401E-2,-1.0957946E-1],"categories":[],"categories_nodes":[],"categories_segments":[],"categories_sizes":[],"default_left":[0,0,0,0,0,0,0,0,0,0,0,0,0,0,0,0,0,0,0],"id":36,"left_children":[1,3,5,-1,7,-1,-1,9,11,-1,13,15,17,-1,-1,-1,-1,-1,-1],"loss_changes":[2.1993113E1,1.7017307E1,1.8996048E-1,0E0,1.5849579E1,0E0,0E0,1.3035013E1,2.1532377E1,0E0,2.5137463E0,2.788779E1,2.1049656E1,0E0,0E0,0E0,0E0,0E0,0E0],"parents":[2147483647,0,0,1,1,2,2,4,4,7,7,8,8,10,10,11,11,12,12],"right_children":[2,4,6,-1,8,-1,-1,10,12,-1,14,16,18,-1,-1,-1,-1,-1,-1],"split_conditions":[6.7E1,1.5E0,3.6230183E1,-1.010864E-1,2.15E1,-9.698311E-2,-3.4751736E-2,2.302381E0,3.341708E1,-1.1177155E-1,1.3769525E2,1E0,3.7825E1,9.710188E-2,-3.3174794E-2,4.8423433E-3,-7.978317E-2,3.405401E-2,-1.0957946E-1],"split_indices":[0,2,3,0,5,0,0,2,3,0,4,1,3,0,0,0,0,0,0],"split_type":[0,0,0,0,0,0,0,0,0,0,0,0,0,0,0,0,0,0,0],"sum_hessian":[4.2394797E2,4.0016885E2,2.3779095E1,1.3920333E1,3.8624854E2,2.1775616E1,2.0034778E0,3.3353413E1,3.528951E2,2.6544993E0,3.0698914E1,1.730459E2,1.7984921E2,2.960487E1,1.0940449E0,1.1533462E2,5.7711285E1,1.6996278E2,9.886436E0],"tree_param":{"num_deleted":"0","num_feature":"6","num_nodes":"19","size_leaf_vector":"1"}},{"base_weights":[-1.9105354E-2,3.3458512E-2,-9.25108E-1,-2.0058991E-1,2.091587E-1,-3.3368323E-2,-9.647321E-2,-4.8901656E-1,5.077293E-1,6.744293E-1,1.9827254E-2,-1.350493E0,-3.1924665E-2,6.367247E-1,-1.5278588E-1,7.446271E-1,-1.21796705E-1,-1.56644E0,2.6371187E-1,-1.5958557E-1,-1.0763146E-1,1.9463604E-2,-1.4647602E-1,-4.449679E-3,8.278817E-2,8.2044795E-2,-9.928545E-2,-1.9411618E-2,-1.6444671E-1,5.3786963E-2,-1.7313082E-2],"categories":[],"categories_nodes":[],"categories_segments":[],"categories_sizes":[],"default_left":[0,0,0,0,0,0,0,0,0,0,0,0,0,0,0,0,0,0,0,0,0,0,0,0,0,0,0,0,0,0,0],"id":37,"left_children":[1,3,5,7,9,-1,-1,11,13,15,17,19,21,23,-1,25,-1,27,29,-1,-1,-1,-1,-1,-1,-1,-1,-1,-1,-1,-1],"loss_changes":[1.976031E1,1.6183697E1,2.1128082E-1,3.473936E1,1.9780748E1,0E0,0E0,4.7400063E1,1.3929604E1,9.536453E0,6.2598637E1,1.0904846E0,2.6170973E1,6.171398E0,0E0,9.147991E0,0E0,1.9898643E0,1.6881294E1,0E0,0E0,0E0,0E0,0E0,0E0,0E0,0E0,0E0,0E0,0E0,0E0],"parents":[2147483647,0,0,1,1,2,2,3,3,4,4,7,7,8,8,9,9,10,10,11,11,12,12,13,13,15,15,17,17,18,18],"right_children":[2,4,6,8,10,-1,-1,12,14,16,18,20,22,24,-1,26,-1,28,30,-1,-1,-1,-1,-1,-1,-1,-1,-1,-1,-1,-1],"split_conditions":[6.7E1,2.0333333E0,6.8E1,6.5E1,2.3E1,-3.3368323E-2,-9.647321E-2,3.4374084E1,1.3903267E2,3.4724556E1,1.366875E2,1E0,2.0252252E0,2.5066668E1,-1.5278588E-1,6.4E1,-1.21796705E-1,4.5E1,1E0,-1.5958557E-1,-1.0763146E-1,1.9463604E-2,-1.4647602E-1,-4.449679E-3,8.278817E-2,8.2044795E-2,-9.928545E-2,-1.9411618E-2,-1.6444671E-1,5.3786963E-2,-1.7313082E-2],"split_indices":[0,2,0,0,5,0,0,3,4,3,4,1,2,5,0,0,0,0,1,0,0,0,0,0,0,0,0,0,0,0,0],"split_type":[0,0,0,0,0,0,0,0,0,0,0,0,0,0,0,0,0,0,0,0,0,0,0,0,0,0,0,0,0,0,0],"sum_hessian":[4.1328204E2,3.915296E2,2.1752438E1,1.6782713E2,2.2370247E2,1.9574202E0,1.9795017E1,1.1948331E2,4.8343834E1,6.3960716E1,1.5974174E2,4.0742256E1,7.874105E1,4.61091E1,2.2347348E0,6.22578E1,1.7029179E0,2.0564413E1,1.3917734E2,1.8957062E1,2.1785196E1,6.873655E1,1.0004499E1,1.0271616E1,3.5837486E1,6.01603E1,2.0974987E0,1.2939805E0,1.9270433E1,8.536925E1,5.3808083E1],"tree_param":{"num_deleted":"0","num_feature":"6","num_nodes":"31","size_leaf_vector":"1"}},{"base_weights":[-2.0310124E-2,2.9143417E-2,-9.162228E-1,-5.1893294E-2,5.3028685E-1,-9.590318E-2,-2.92086E-2,1.4490278E-2,-1.1445684E0,8.181809E-1,-1.1079851E0,6.0148644E-1,-8.295648E-2,-1.20304525E-1,-3.924158E-2,9.504132E-1,-1.1534717E-1,-2.2264192E-1,-1.4594345E-1,-1.0971053E-1,8.6268365E-2,-2.4413513E-2,3.7857525E-2,9.850206E-2,-2.1915425E-2,4.118478E-2,-7.597117E-2],"categories":[],"categories_nodes":[],"categories_segments":[],"categories_sizes":[],"default_left":[0,0,0,0,0,0,0,0,0,0,0,0,0,0,0,0,0,0,0,0,0,0,0,0,0,0,0],"id":38,"left_children":[1,3,5,7,9,-1,-1,11,13,15,17,19,21,-1,-1,23,-1,25,-1,-1,-1,-1,-1,-1,-1,-1,-1],"loss_changes":[1.7713678E1,1.5430723E1,2.7866364E-1,2.3764938E1,2.5849205E1,0E0,0E0,1.776148E1,3.5321426E-1,1.2973177E1,2.2666855E0,2.055904E1,1.9912106E1,0E0,0E0,1.9660454E0,0E0,1.5215186E0,0E0,0E0,0E0,0E0,0E0,0E0,0E0,0E0,0E0],"parents":[2147483647,0,0,1,1,2,2,3,3,4,4,7,7,8,8,9,9,10,10,11,11,12,12,15,15,17,17],"right_children":[2,4,6,8,10,-1,-1,12,14,16,18,20,22,-1,-1,24,-1,26,-1,-1,-1,-1,-1,-1,-1,-1,-1],"split_conditions":[6.7E1,1.4101718E2,3.6230183E1,3.6784634E1,5.5E1,-9.590318E-2,-2.92086E-2,2.22E1,1.4064075E2,1.4304546E2,5.7E1,2.2182436E0,3.518891E1,-1.20304525E-1,-3.924158E-2,2.6625E1,-1.1534717E-1,1.41462E2,-1.4594345E-1,-1.0971053E-1,8.6268365E-2,-2.4413513E-2,3.7857525E-2,9.850206E-2,-2.1915425E-2,4.118478E-2,-7.597117E-2],"split_indices":[0,4,3,3,0,0,0,5,4,4,0,2,3,0,0,5,0,4,0,0,0,0,0,0,0,0,0],"split_type":[0,0,0,0,0,0,0,0,0,0,0,0,0,0,0,0,0,0,0,0,0,0,0,0,0,0,0],"sum_hessian":[3.9819995E2,3.7828638E2,1.9913584E1,3.2640237E2,5.1884E1,1.8133265E1,1.7803181E0,3.0863834E2,1.7764044E1,4.4554928E1,7.32907E0,4.3205597E1,2.6543274E2,1.5926366E1,1.837678E0,4.2239994E1,2.3149366E0,2.5468197E0,4.7822504E0,5.3318367E0,3.787376E1,1.9707881E2,6.835392E1,4.117929E1,1.0607032E0,1.2744056E0,1.2724142E0],"tree_param":{"num_deleted":"0","num_feature":"6","num_nodes":"27","size_leaf_vector":"1"}},{"base_weights":[-1.9788774E-2,-1.0006761E-1,2.4221003E-2,5.500382E-2,-1.3015795E-1,-4.7957525E-2,4.918704E-1,-3.1487402E-1,2.4985556E-1,7.383942E-1,-1.2359562E0,-1.6657861E-4,-8.621033E-2,3.7807178E-2,-6.020389E-2,-1.23681895E-1,8.3828114E-2,1.3393237E-2,-1.445639E-1],"categories":[],"categories_nodes":[],"categories_segments":[],"categories_sizes":[],"default_left":[0,0,0,0,0,0,0,0,0,0,0,0,0,0,0,0,0,0,0],"id":39,"left_children":[1,-1,3,5,-1,7,9,11,13,15,17,-1,-1,-1,-1,-1,-1,-1,-1],"loss_changes":[1.6850275E1,0E0,1.5335799E1,1.650828E1,0E0,2.3727123E1,3.0724361E1,2.69643E1,1.564695E1,1.3244755E1,2.8112593E0,0E0,0E0,0E0,0E0,0E0,0E0,0E0,0E0],"parents":[2147483647,0,0,2,2,3,3,5,5,6,6,7,7,8,8,9,9,10,10],"right_children":[2,-1,4,6,-1,8,10,12,14,16,18,-1,-1,-1,-1,-1,-1,-1,-1],"split_conditions":[1.5E0,-1.0006761E-1,3.2666667E0,2.7579997E0,-1.3015795E-1,3.4005127E1,5.9E1,1E0,2.625E1,2.874091E1,2.1639122E1,-1.6657861E-4,-8.621033E-2,3.7807178E-2,-6.020389E-2,-1.23681895E-1,8.3828114E-2,1.3393237E-2,-1.445639E-1],"split_indices":[2,0,2,2,0,3,0,1,5,3,5,0,0,0,0,0,0,0,0],"split_type":[0,0,0,0,0,0,0,0,0,0,0,0,0,0,0,0,0,0,0],"sum_hessian":[3.8877463E2,1.576082E1,3.7301382E2,3.6548636E2,7.527456E0,2.9649762E2,6.898876E1,1.5632935E2,1.4016826E2,6.087574E1,8.113018E0,1.0006176E2,5.626759E1,1.22315155E2,1.7853102E1,2.3824186E0,5.8493324E1,1.1249324E0,6.9880857E0],"tree_param":{"num_deleted":"0","num_feature":"6","num_nodes":"19","size_leaf_vector":"1"}},{"base_weights":[-1.9723754E-2,-9.900282E-2,2.1264326E-2,5.000658E-2,-1.2649128E-1,-4.429504E-2,4.7166598E-1,-3.5540718E-1,1.936023E-1,7.11883E-1,-1.1887517E0,5.0193932E-2,-6.141758E-2,3.1802617E-2,-9.6941106E-2,-1.18077986E-1,8.112847E-2,1.2727856E-2,-1.4005803E-1],"categories":[],"categories_nodes":[],"categories_segments":[],"categories_sizes":[],"default_left":[0,0,0,0,0,0,0,0,0,0,0,0,0,0,0,0,0,0,0],"id":40,"left_children":[1,-1,3,5,-1,7,9,11,13,15,17,-1,-1,-1,-1,-1,-1,-1,-1],"loss_changes":[1.5128403E1,0E0,1.3572792E1,1.4272661E1,0E0,2.1815464E1,2.70088E1,2.8632952E1,2.4496115E1,1.18562565E1,2.5937548E0,0E0,0E0,0E0,0E0,0E0,0E0,0E0,0E0],"parents":[2147483647,0,0,2,2,3,3,5,5,6,6,7,7,8,8,9,9,10,10],"right_children":[2,-1,4,6,-1,8,10,12,14,16,18,-1,-1,-1,-1,-1,-1,-1,-1],"split_conditions":[1.5E0,-9.900282E-2,3.2666667E0,2.7579997E0,-1.2649128E-1,2.5066668E1,5.9E1,1.3412163E2,2.7E1,2.874091E1,2.1639122E1,5.0193932E-2,-6.141758E-2,3.1802617E-2,-9.6941106E-2,-1.18077986E-1,8.112847E-2,1.2727856E-2,-1.4005803E-1],"split_indices":[2,0,2,2,0,5,0,4,5,3,5,0,0,0,0,0,0,0,0],"split_type":[0,0,0,0,0,0,0,0,0,0,0,0,0,0,0,0,0,0,0],"sum_hessian":[3.7885928E2,1.4416871E1,3.644424E2,3.5741632E2,7.026078E0,2.9282312E2,6.45932E1,1.2667237E2,1.6615076E2,5.692847E1,7.664731E0,2.9150814E1,9.752155E1,1.5074951E2,1.5401241E1,2.2978222E0,5.463065E1,1.1180081E0,6.546723E0],"tree_param":{"num_deleted":"0","num_feature":"6","num_nodes":"19","size_leaf_vector":"1"}},{"base_weights":[-1.941496E-2,1.7005502E-1,-2.2106384E-1,5.019647E-1,-9.718926E-3,4.9831647E-1,-3.8792986E-1,-4.9210128E-1,7.203253E-1,6.804113E-2,-1.2154137E-1,-8.1620455E-1,8.469089E-1,-2.5948524E-1,-1.06231086E-1,-1.5905571E-1,6.9695383E-1,-1.4483897E-1,7.9899234E-1,1.3127273E-1,-1.0520151E0,1.7235605E-2,-1.0028391E-1,-4.0337056E-2,9.2462754E-1,-6.6967714E-1,2.4604158E-1,8.7622724E-2,-9.0699794E-4,-9.807473E-2,8.70464E-2,-1.0579405E-1,2.043579E-2,7.294305E-2,-2.064197E-1,2.5310574E-2,9.8826535E-2,-1.240831E-1,4.3281447E-2,-1.2411674E-1,6.636611E-2],"categories":[],"categories_nodes":[],"categories_segments":[],"categories_sizes":[],"default_left":[0,0,0,0,0,0,0,0,0,0,0,0,0,0,0,0,0,0,0,0,0,0,0,0,0,0,0,0,0,0,0,0,0,0,0,0,0,0,0,0,0],"id":41,"left_children":[1,3,5,7,9,11,13,15,17,19,-1,21,23,25,-1,-1,27,-1,29,31,33,-1,-1,-1,35,37,39,-1,-1,-1,-1,-1,-1,-1,-1,-1,-1,-1,-1,-1,-1],"loss_changes":[1.41882E1,1.1432508E1,2.1783085E1,1.4964361E1,1.182188E1,1.640929E1,1.2418871E1,1.7717445E1,1.0641325E1,8.535741E0,0E0,1.5932894E0,3.0551128E0,2.596679E1,0E0,0E0,8.688328E-1,0E0,7.759308E0,1.0048341E1,1.3130778E1,0E0,0E0,0E0,8.733845E-1,4.396092E1,3.5895786E1,0E0,0E0,0E0,0E0,0E0,0E0,0E0,0E0,0E0,0E0,0E0,0E0,0E0,0E0],"parents":[2147483647,0,0,1,1,2,2,3,3,4,4,5,5,6,6,7,7,8,8,9,9,11,11,12,12,13,13,16,16,18,18,19,19,20,20,24,24,25,25,26,26],"right_children":[2,4,6,8,10,12,14,16,18,20,-1,22,24,26,-1,-1,28,-1,30,32,34,-1,-1,-1,36,38,40,-1,-1,-1,-1,-1,-1,-1,-1,-1,-1,-1,-1,-1,-1],"split_conditions":[1E0,4.8E1,1.3412163E2,1.3854546E2,2.6818182E1,1.3381017E2,2.5729565E1,3.0333333E0,3.197857E1,3.548E1,-1.2154137E-1,2.1692308E1,5.6E1,2.5066668E1,-1.06231086E-1,-1.5905571E-1,3.1631944E0,-1.4483897E-1,2.31E1,1.3418182E2,1.3449063E2,1.7235605E-2,-1.0028391E-1,-4.0337056E-2,1.3387193E2,2.7742372E0,3.4151096E1,8.7622724E-2,-9.0699794E-4,-9.807473E-2,8.70464E-2,-1.0579405E-1,2.043579E-2,7.294305E-2,-2.064197E-1,2.5310574E-2,9.8826535E-2,-1.240831E-1,4.3281447E-2,-1.2411674E-1,6.636611E-2],"split_indices":[1,0,4,4,5,4,5,2,3,3,0,5,0,5,0,0,2,0,5,4,4,0,0,0,4,2,3,0,0,0,0,0,0,0,0,0,0,0,0,0,0],"split_type":[0,0,0,0,0,0,0,0,0,0,0,0,0,0,0,0,0,0,0,0,0,0,0,0,0,0,0,0,0,0,0,0,0,0,0,0,0,0,0,0,0],"sum_hessian":[3.6937262E2,1.9051797E2,1.7885464E2,6.630655E1,1.2421142E2,3.330148E1,1.4555318E2,1.1716171E1,5.4590374E1,1.1757228E2,6.6391377E0,6.6989007E0,2.6602577E1,1.23429245E2,2.2123928E1,5.914582E0,5.801589E0,1.3013991E0,5.3288975E1,1.1212517E2,5.447112E0,1.0760128E0,5.622888E0,1.3116467E0,2.529093E1,6.7960434E1,5.5468807E1,4.434507E0,1.3670821E0,1.5662031E0,5.1722775E1,5.7116685E0,1.06413506E2,2.074801E0,3.3723114E0,2.620114E0,2.2670816E1,4.4685368E1,2.3275066E1,1.1728778E1,4.3740032E1],"tree_param":{"num_deleted":"0","num_feature":"6","num_nodes":"41","size_leaf_vector":"1"}},{"base_weights":[-2.0925218E-2,1.8248817E-2,-9.3986735E-2,-1.2358632E-1,4.6939373E-2,7.3154837E-1,-1.8551568E-2,-8.623113E-2,8.591572E-1,2.07754E-1,-3.279284E-1,9.620839E-3,9.254588E-2,2.4304138E-2,-1.3456288E-1,-2.0255959E-2,-1.0543086E-1],"categories":[],"categories_nodes":[],"categories_segments":[],"categories_sizes":[],"default_left":[0,0,0,0,0,0,0,0,0,0,0,0,0,0,0,0,0],"id":42,"left_children":[1,3,-1,-1,5,7,9,-1,11,13,15,-1,-1,-1,-1,-1,-1],"loss_changes":[1.2789426E1,1.2337413E1,0E0,0E0,1.5015754E1,6.687768E0,2.151786E1,0E0,1.3057022E0,1.0059384E1,1.1608129E1,0E0,0E0,0E0,0E0,0E0,0E0],"parents":[2147483647,0,0,1,1,4,4,5,5,6,6,8,8,9,9,10,10],"right_children":[2,4,-1,-1,6,8,10,-1,12,14,16,-1,-1,-1,-1,-1,-1],"split_conditions":[6.8E1,1.337E2,-9.3986735E-2,-1.2358632E-1,1.3412163E2,2.9414286E1,1E0,-8.623113E-2,1.338291E2,3.238201E0,2.5729565E1,9.620839E-3,9.254588E-2,2.4304138E-2,-1.3456288E-1,-2.0255959E-2,-1.0543086E-1],"split_indices":[0,4,0,0,4,3,1,0,4,2,5,0,0,0,0,0,0],"split_type":[0,0,0,0,0,0,0,0,0,0,0,0,0,0,0,0,0],"sum_hessian":[3.537985E2,3.4027298E2,1.3525522E1,6.6693406E0,3.3360364E2,2.8238848E1,3.0536478E2,1.6664987E0,2.657235E1,1.7654941E2,1.2881537E2,2.3205273E0,2.4251822E1,1.7345271E2,3.0966952E0,1.1094568E2,1.786969E1],"tree_param":{"num_deleted":"0","num_feature":"6","num_nodes":"17","size_leaf_vector":"1"}},{"base_weights":[-2.0694591E-2,-2.2916812E-1,1.4064614E-1,-5.7666636E-1,2.2428785E-1,2.1434066E-1,-1.0972734E-1,-1.3458757E-1,2.1924311E-2,4.6590346E-1,-1.312379E0,2.8037512E-1,-9.659432E-1,1.6954084E-1,-1.2441724E-1,6.159143E-1,-9.538681E-2,-1.4781748E-1,-3.695317E-2,3.3077723E-1,-1.24520384E-1,-1.3586472E-1,3.8844716E-2,-3.3058736E-2,5.2901905E-2,-5.2800436E-2,7.632891E-2,7.471473E-2,1.616352E-2],"categories":[],"categories_nodes":[],"categories_segments":[],"categories_sizes":[],"default_left":[0,0,0,0,0,0,0,0,0,0,0,0,0,0,0,0,0,0,0,0,0,0,0,0,0,0,0,0,0],"id":43,"left_children":[1,3,5,7,9,11,-1,-1,13,15,17,19,21,23,-1,25,-1,-1,-1,27,-1,-1,-1,-1,-1,-1,-1,-1,-1],"loss_changes":[1.1716806E1,2.407101E1,1.8157127E1,3.9765152E1,2.5353401E1,1.4787127E1,0E0,0E0,9.465304E0,1.300917E1,9.100857E-1,1.4033974E1,5.8960886E0,8.305789E0,0E0,9.398214E0,0E0,0E0,0E0,1.2012325E1,0E0,0E0,0E0,0E0,0E0,0E0,0E0,0E0,0E0],"parents":[2147483647,0,0,1,1,2,2,3,3,4,4,5,5,8,8,9,9,10,10,11,11,12,12,13,13,15,15,19,19],"right_children":[2,4,6,8,10,12,-1,-1,14,16,18,20,22,24,-1,26,-1,-1,-1,28,-1,-1,-1,-1,-1,-1,-1,-1,-1],"split_conditions":[2.0333333E0,3.5427563E1,6.6E1,6.3E1,2.0252252E0,3.577E1,-1.0972734E-1,-1.3458757E-1,1.3903267E2,3.7825E1,1E0,3.2666667E0,1.4203725E2,2.5354692E1,-1.2441724E-1,2.4144993E1,-9.538681E-2,-1.4781748E-1,-3.695317E-2,2.3E1,-1.24520384E-1,-1.3586472E-1,3.8844716E-2,-3.3058736E-2,5.2901905E-2,-5.2800436E-2,7.632891E-2,7.471473E-2,1.616352E-2],"split_indices":[2,3,0,0,2,3,0,0,4,3,1,2,4,5,0,5,0,0,0,5,0,0,0,0,0,0,0,0,0],"split_type":[0,0,0,0,0,0,0,0,0,0,0,0,0,0,0,0,0,0,0,0,0,0,0,0,0,0,0,0,0],"sum_hessian":[3.463905E2,1.5093813E2,1.954524E2,8.529899E1,6.563914E1,1.8525107E2,1.0201317E1,3.6783077E1,4.851591E1,5.732287E1,8.316269E0,1.7615785E2,9.093222E0,4.4225655E1,4.290258E0,5.235709E1,4.9657803E0,6.589718E0,1.7265515E0,1.7128221E2,4.875644E0,7.046852E0,2.0463696E0,1.8528305E1,2.569735E1,5.6807284E0,4.667636E1,4.8492622E1,1.2278958E2],"tree_param":{"num_deleted":"0","num_feature":"6","num_nodes":"29","size_leaf_vector":"1"}},{"base_weights":[-2.1810535E-2,-9.611543E-2,1.3059352E-2,-1.1909067E-1,3.980581E-2,7.0548135E-1,-2.0105356E-2,-8.198465E-2,8.344629E-1,1.8303506E-1,-2.998603E-1,9.391734E-2,2.3447726E-2,-5.194371E-3,4.20394E-2,-8.307887E-2,-1.3249396E-2],"categories":[],"categories_nodes":[],"categories_segments":[],"categories_sizes":[],"default_left":[0,0,0,0,0,0,0,0,0,0,0,0,0,0,0,0,0],"id":44,"left_children":[1,-1,3,-1,5,7,9,-1,11,13,15,-1,-1,-1,-1,-1,-1],"loss_changes":[1.1037374E1,0E0,1.0529923E1,0E0,1.275305E1,5.878413E0,1.6763725E1,0E0,1.340292E0,9.556635E0,1.0914164E1,0E0,0E0,0E0,0E0,0E0,0E0],"parents":[2147483647,0,0,2,2,4,4,5,5,6,6,8,8,9,9,10,10],"right_children":[2,-1,4,-1,6,8,10,-1,12,14,16,-1,-1,-1,-1,-1,-1],"split_conditions":[1.5E0,-9.611543E-2,1.337E2,-1.1909067E-1,1.3412163E2,2.955E1,1E0,-8.198465E-2,2.4277779E1,2.5714285E1,3.2016666E1,9.391734E-2,2.3447726E-2,-5.194371E-3,4.20394E-2,-8.307887E-2,-1.3249396E-2],"split_indices":[2,0,4,0,4,3,1,0,5,5,3,0,0,0,0,0,0],"split_type":[0,0,0,0,0,0,0,0,0,0,0,0,0,0,0,0,0],"sum_hessian":[3.3558636E2,1.1060791E1,3.2452557E2,6.1068277E0,3.1841873E2,2.5401882E1,2.9301685E2,1.562893E0,2.383899E1,1.6995325E2,1.23063614E2,1.9815437E1,4.023551E0,8.579738E1,8.415587E1,2.854566E1,9.451795E1],"tree_param":{"num_deleted":"0","num_feature":"6","num_nodes":"17","size_leaf_vector":"1"}},{"base_weights":[-2.0735048E-2,-8.7865874E-2,4.4504738E-1,-2.9447732E-2,-1.1043563E0,7.751944E-1,-1.038725E0,5.212648E-1,-1.0473772E-1,-1.1594913E-1,-3.7487146E-2,9.1883385E-1,-1.0255861E-1,-1.7304829E-1,-1.325836E-1,-1.0402701E-1,8.0512017E-1,-2.68061E-1,2.9417577E-1,9.565151E-1,-6.4623966E-3,3.690976E-2,-6.508678E-2,9.130829E-2,-8.533674E-2,1.2399339E-3,-7.2499886E-2,5.0187916E-2,-5.87685E-2,-2.9962533E-3,9.9468604E-2],"categories":[],"categories_nodes":[],"categories_segments":[],"categories_sizes":[],"default_left":[0,0,0,0,0,0,0,0,0,0,0,0,0,0,0,0,0,0,0,0,0,0,0,0,0,0,0,0,0,0,0],"id":45,"left_children":[1,3,5,7,9,11,13,15,17,-1,-1,19,-1,21,-1,-1,23,25,27,29,-1,-1,-1,-1,-1,-1,-1,-1,-1,-1,-1],"loss_changes":[1.0366382E1,1.7158947E1,2.126677E1,1.1448764E1,1.9706154E-1,9.928337E0,1.7663364E0,1.5561459E1,1.5883676E1,0E0,0E0,1.273653E0,0E0,1.0562346E0,0E0,0E0,5.9130974E0,2.2133255E1,1.3289568E1,1.2181053E0,0E0,0E0,0E0,0E0,0E0,0E0,0E0,0E0,0E0,0E0,0E0],"parents":[2147483647,0,0,1,1,2,2,3,3,4,4,5,5,6,6,7,7,8,8,11,11,13,13,16,16,17,17,18,18,19,19],"right_children":[2,4,6,8,10,12,14,16,18,-1,-1,20,-1,22,-1,-1,24,26,28,30,-1,-1,-1,-1,-1,-1,-1,-1,-1,-1,-1],"split_conditions":[1.4101718E2,3.6784634E1,5.5E1,2.2142857E1,1.4064075E2,1.4304546E2,5.7E1,2.225E0,3.493676E1,-1.1594913E-1,-3.7487146E-2,2.6571428E1,-1.0255861E-1,1.41462E2,-1.325836E-1,-1.0402701E-1,6.2E1,1E0,2.5567816E1,2.4277779E1,-6.4623966E-3,3.690976E-2,-6.508678E-2,9.130829E-2,-8.533674E-2,1.2399339E-3,-7.2499886E-2,5.0187916E-2,-5.87685E-2,-2.9962533E-3,9.9468604E-2],"split_indices":[4,3,0,5,4,4,0,2,3,0,0,5,0,4,0,0,0,1,5,5,0,0,0,0,0,0,0,0,0,0,0],"split_type":[0,0,0,0,0,0,0,0,0,0,0,0,0,0,0,0,0,0,0,0,0,0,0,0,0,0,0,0,0,0,0],"sum_hessian":[3.2927887E2,2.885089E2,4.0769947E1,2.7380237E2,1.4706568E1,3.3740143E1,7.029805E0,3.2218082E1,2.4158427E2,1.3125098E1,1.5814698E0,3.1701248E1,2.0388951E0,2.15E0,4.879805E0,4.5458465E0,2.7672237E1,1.7163956E2,6.994471E1,3.055782E1,1.1434281E0,1.1137965E0,1.0362035E0,2.6402931E1,1.2693056E0,1.069614E2,6.467816E1,5.695991E1,1.2984798E1,1.1463723E0,2.9411448E1],"tree_param":{"num_deleted":"0","num_feature":"6","num_nodes":"31","size_leaf_vector":"1"}},{"base_weights":[-2.0504959E-2,-9.0370536E-1,1.3960948E-2,-1.1114458E-1,1.4014108E-2,-1.8964346E-1,1.6722627E-1,-2.7226431E-2,3.0868722E-2,-3.8444728E-2,-1.4136435E0,2.3425902E-1,-9.6846235E-1,-4.183082E-1,4.4116324E-1,-1.5470771E-1,-4.8885265E-1,2.9356152E-1,-1.060267E-1,-1.2883388E-1,2.9672027E-2,-1.2757395E-1,1.3616594E-2,5.8507916E-2,-8.0808066E-2,-6.0045917E-2,-1.3236483E-2,3.4104344E-2,-1.2175558E-1],"categories":[],"categories_nodes":[],"categories_segments":[],"categories_sizes":[],"default_left":[0,0,0,0,0,0,0,0,0,0,0,0,0,0,0,0,0,0,0,0,0,0,0,0,0,0,0,0,0],"id":46,"left_children":[1,3,5,-1,7,9,11,-1,-1,13,15,17,19,21,23,-1,25,27,-1,-1,-1,-1,-1,-1,-1,-1,-1,-1,-1],"loss_changes":[9.795205E0,2.3196049E0,9.71429E0,0E0,3.555342E-1,2.469411E1,1.374403E1,0E0,0E0,2.205627E1,1.0545616E0,1.3244211E1,4.4660473E0,3.2267403E1,1.0099699E1,0E0,5.2306235E-2,1.2029568E1,0E0,0E0,0E0,0E0,0E0,0E0,0E0,0E0,0E0,0E0,0E0],"parents":[2147483647,0,0,1,1,2,2,4,4,5,5,6,6,9,9,10,10,11,11,12,12,13,13,14,14,16,16,17,17],"right_children":[2,4,6,-1,8,10,12,-1,-1,14,16,18,20,22,24,-1,26,28,-1,-1,-1,-1,-1,-1,-1,-1,-1,-1,-1],"split_conditions":[2.6606667E1,2.6646923E1,2.0333333E0,-1.1114458E-1,2.655625E1,2.0252252E0,3.577E1,-2.7226431E-2,3.0868722E-2,3.5427563E1,1E0,6.6E1,1.4203725E2,6.3E1,3.7604317E1,-1.5470771E-1,5.7E1,3.2666667E0,-1.060267E-1,-1.2883388E-1,2.9672027E-2,-1.2757395E-1,1.3616594E-2,5.8507916E-2,-8.0808066E-2,-6.0045917E-2,-1.3236483E-2,3.4104344E-2,-1.2175558E-1],"split_indices":[3,5,2,0,3,2,3,0,0,3,1,0,4,0,3,0,0,2,0,0,0,0,0,0,0,0,0,0,0],"split_type":[0,0,0,0,0,0,0,0,0,0,0,0,0,0,0,0,0,0,0,0,0,0,0,0,0,0,0,0,0],"sum_hessian":[3.2036963E2,1.1085284E1,3.0928436E2,8.867002E0,2.2182825E0,1.3272684E2,1.7655753E2,1.1637409E0,1.0545417E0,1.1905195E2,1.3674884E1,1.6746672E2,9.090808E0,6.6505486E1,5.2546467E1,1.1362544E1,2.3123398E0,1.6087044E2,6.5962768E0,7.2416077E0,1.8492E0,2.5606747E1,4.0898735E1,4.7595055E1,4.9514103E0,1.2398137E0,1.0725262E0,1.5672032E2,4.1501145E0],"tree_param":{"num_deleted":"0","num_feature":"6","num_nodes":"29","size_leaf_vector":"1"}},{"base_weights":[-2.1975368E-2,-9.455813E-2,9.88011E-3,-1.15705505E-1,3.4749787E-2,6.7993397E-1,-2.0860791E-2,-7.76701E-2,8.057981E-1,-2.7661312E-1,1.7557548E-1,9.176289E-2,1.9509424E-2,-8.437609E-2,1.1562496E-2,2.3525132E-2,-8.211126E-2],"categories":[],"categories_nodes":[],"categories_segments":[],"categories_sizes":[],"default_left":[0,0,0,0,0,0,0,0,0,0,0,0,0,0,0,0,0],"id":47,"left_children":[1,-1,3,-1,5,7,9,-1,11,13,15,-1,-1,-1,-1,-1,-1],"loss_changes":[9.215598E0,0E0,8.847072E0,0E0,1.0709751E1,4.9682465E0,1.3885167E1,0E0,1.3434277E0,2.6799536E1,9.494564E0,0E0,0E0,0E0,0E0,0E0,0E0],"parents":[2147483647,0,0,2,2,4,4,5,5,6,6,8,8,9,9,10,10],"right_children":[2,-1,4,-1,6,8,10,-1,12,14,16,-1,-1,-1,-1,-1,-1],"split_conditions":[1.5E0,-9.455813E-2,1.337E2,-1.15705505E-1,1.3412163E2,2.955E1,2.5100927E1,-7.76701E-2,2.4277779E1,2.2548242E0,2.75E1,9.176289E-2,1.9509424E-2,-8.437609E-2,1.1562496E-2,2.3525132E-2,-8.211126E-2],"split_indices":[2,0,4,0,4,3,5,0,5,2,5,0,0,0,0,0,0],"split_type":[0,0,0,0,0,0,0,0,0,0,0,0,0,0,0,0,0],"sum_hessian":[3.119048E2,9.442716E0,3.0246207E2,5.3615737E0,2.971005E2,2.2685112E1,2.7441537E2,1.3929899E0,2.1292122E1,1.19032104E2,1.5538329E2,1.757183E1,3.7202916E0,4.819479E1,7.083731E1,1.4732622E2,8.057062E0],"tree_param":{"num_deleted":"0","num_feature":"6","num_nodes":"17","size_leaf_vector":"1"}},{"base_weights":[-2.130957E-2,1.0121361E-2,-9.1082506E-2,-5.1492255E-2,4.5679104E-1,2.2357702E-3,-1.0697378E0,7.3199797E-1,-1.1095239E0,5.416934E-1,-6.916714E-2,-1.13382995E-1,-3.241917E-2,9.038147E-1,-7.056124E-1,-7.6913536E-3,-1.3117056E-1,-1.0051966E-1,7.849541E-2,-1.681836E-2,5.32547E-2,5.7842344E-4,9.477719E-2,1.1864913E-3,-9.6749805E-2],"categories":[],"categories_nodes":[],"categories_segments":[],"categories_sizes":[],"default_left":[0,0,0,0,0,0,0,0,0,0,0,0,0,0,0,0,0,0,0,0,0,0,0,0,0],"id":48,"left_children":[1,3,-1,5,7,9,11,13,15,17,19,-1,-1,21,23,-1,-1,-1,-1,-1,-1,-1,-1,-1,-1],"loss_changes":[8.595707E0,8.214442E0,0E0,1.4360369E1,1.6407574E1,9.678345E0,2.6106644E-1,8.387499E0,1.1109047E0,1.1840661E1,1.3311503E1,0E0,0E0,1.118124E0,7.4635243E-1,0E0,0E0,0E0,0E0,0E0,0E0,0E0,0E0,0E0,0E0],"parents":[2147483647,0,0,1,1,3,3,4,4,5,5,6,6,7,7,8,8,9,9,10,10,13,13,14,14],"right_children":[2,4,-1,6,8,10,12,14,16,18,20,-1,-1,22,24,-1,-1,-1,-1,-1,-1,-1,-1,-1,-1],"split_conditions":[6.8E1,1.4101718E2,-9.1082506E-2,3.6784634E1,5.6E1,2.22E1,1.4064075E2,1.4294958E2,1.4127435E2,2.2182436E0,6.6E1,-1.13382995E-1,-3.241917E-2,3.19E1,1.4304546E2,-7.6913536E-3,-1.3117056E-1,-1.0051966E-1,7.849541E-2,-1.681836E-2,5.32547E-2,5.7842344E-4,9.477719E-2,1.1864913E-3,-9.6749805E-2],"split_indices":[0,4,0,3,0,5,4,4,4,2,0,0,0,3,4,0,0,0,0,0,0,0,0,0,0],"split_type":[0,0,0,0,0,0,0,0,0,0,0,0,0,0,0,0,0,0,0,0,0,0,0,0,0],"sum_hessian":[3.0611768E2,2.966251E2,9.492593E0,2.6144595E2,3.5179134E1,2.492899E2,1.2156051E1,3.0374834E1,4.804301E0,2.8369379E1,2.2092052E2,1.0714182E1,1.4418688E0,2.7463793E1,2.9110408E0,1.0126694E0,3.7916315E0,3.429444E0,2.4939936E1,1.9032211E2,3.0598402E1,1.3343846E0,2.6129408E1,1.0337132E0,1.8773276E0],"tree_param":{"num_deleted":"0","num_feature":"6","num_nodes":"25","size_leaf_vector":"1"}},{"base_weights":[-2.051622E-2,-8.7316746E-1,1.1788852E-2,-1.0895514E-1,2.1022419E-2,3.642842E-2,-1.0961657E0,-2.4491467E-2,2.8335446E-2,-4.53965E-2,4.285472E-1,-1.143803E-2,-1.2592195E-1,-3.2244393E-1,1.6817741E-1,6.662174E-1,-1.1494279E0,3.5527337E-2,-5.352794E-2,2.7136613E-2,-8.7320946E-2,7.728978E-2,-1.2548572E-1,-4.4714767E-3,-1.3623558E-1],"categories":[],"categories_nodes":[],"categories_segments":[],"categories_sizes":[],"default_left":[0,0,0,0,0,0,0,0,0,0,0,0,0,0,0,0,0,0,0,0,0,0,0,0,0],"id":49,"left_children":[1,3,5,-1,7,9,11,-1,-1,13,15,-1,-1,17,19,21,23,-1,-1,-1,-1,-1,-1,-1,-1],"loss_changes":[8.304323E0,2.1522837E0,7.9869204E0,0E0,2.8743213E-1,9.187398E0,8.749218E-1,0E0,0E0,1.4095933E1,1.9302998E1,0E0,0E0,1.5140495E1,1.4707811E1,9.903376E0,1.547327E0,0E0,0E0,0E0,0E0,0E0,0E0,0E0,0E0],"parents":[2147483647,0,0,1,1,2,2,4,4,5,5,6,6,9,9,10,10,13,13,14,14,15,15,16,16],"right_children":[2,4,6,-1,8,10,12,-1,-1,14,16,-1,-1,18,20,22,24,-1,-1,-1,-1,-1,-1,-1,-1],"split_conditions":[2.6606667E1,2.6646923E1,3.238201E0,-1.0895514E-1,2.655625E1,2.7579997E0,1.354E2,-2.4491467E-2,2.8335446E-2,2.5066668E1,5.9E1,-1.143803E-2,-1.2592195E-1,2.8637321E1,2.7E1,3.4374084E1,1.3585715E2,3.5527337E-2,-5.352794E-2,2.7136613E-2,-8.7320946E-2,7.728978E-2,-1.2548572E-1,-4.4714767E-3,-1.3623558E-1],"split_indices":[3,5,2,0,3,2,4,0,0,5,0,0,0,3,5,3,4,0,0,0,0,0,0,0,0],"split_type":[0,0,0,0,0,0,0,0,0,0,0,0,0,0,0,0,0,0,0,0,0,0,0,0,0],"sum_hessian":[3.001088E2,1.000521E1,2.9010358E2,7.879887E0,2.125323E0,2.8473846E2,5.3651185E0,1.0883802E0,1.0369427E0,2.363108E2,4.842765E1,1.0064619E0,4.358657E0,1.0264729E2,1.3366351E2,4.259058E1,5.837071E0,2.4371994E1,7.82753E1,1.222859E2,1.1377617E1,4.0916115E1,1.6744641E0,1.138791E0,4.69828E0],"tree_param":{"num_deleted":"0","num_feature":"6","num_nodes":"25","size_leaf_vector":"1"}},{"base_weights":[-2.0453827E-2,-1.1139562E-1,3.7028359E-3,6.5048045E-1,-5.0888374E-2,-7.583469E-2,7.766323E-1,1.466541E-1,-3.1629965E-1,4.392587E-2,8.914368E-1,4.550068E-1,-3.396324E-2,-1.9848943E-1,-1.0253147E-1,6.5670714E-2,-7.992125E-2,9.309235E-3,1.0037793E-1,-1.26294E-1,5.879543E-2,3.2960277E-2,-3.2936923E-2,-5.970278E-2,2.2615284E-2],"categories":[],"categories_nodes":[],"categories_segments":[],"categories_sizes":[],"default_left":[0,0,0,0,0,0,0,0,0,0,0,0,0,0,0,0,0,0,0,0,0,0,0,0,0],"id":50,"left_children":[1,-1,3,5,7,-1,9,11,13,15,17,19,21,23,-1,-1,-1,-1,-1,-1,-1,-1,-1,-1,-1],"loss_changes":[7.80216E0,0E0,1.0266331E1,4.6110945E0,1.4107759E1,0E0,1.7496328E0,8.61672E0,9.381876E0,2.5565774E0,1.5507822E0,1.3787748E1,1.0668298E1,1.6998415E1,0E0,0E0,0E0,0E0,0E0,0E0,0E0,0E0,0E0,0E0,0E0],"parents":[2147483647,0,0,2,2,3,3,4,4,6,6,7,7,8,8,9,9,10,10,11,11,12,12,13,13],"right_children":[2,-1,4,6,8,-1,10,12,14,16,18,20,22,24,-1,-1,-1,-1,-1,-1,-1,-1,-1,-1,-1],"split_conditions":[1.337E2,-1.1139562E-1,1.3412163E2,2.955E1,1E0,-7.583469E-2,1.3387193E2,4.9E1,2.5729565E1,2.00413E1,6E1,3.0725E1,2.8683332E1,2.5066668E1,-1.0253147E-1,6.5670714E-2,-7.992125E-2,9.309235E-3,1.0037793E-1,-1.26294E-1,5.879543E-2,3.2960277E-2,-3.2936923E-2,-5.970278E-2,2.2615284E-2],"split_indices":[4,0,4,3,1,0,4,0,5,5,0,3,3,5,0,0,0,0,0,0,0,0,0,0,0],"split_type":[0,0,0,0,0,0,0,0,0,0,0,0,0,0,0,0,0,0,0,0,0,0,0,0,0],"sum_hessian":[2.9420822E2,5.383833E0,2.888244E2,2.1631107E1,2.671933E2,1.365887E0,2.026522E1,1.5343837E2,1.1375492E2,2.9324338E0,1.7332787E1,5.6116405E1,9.732197E1,9.864413E1,1.5110796E1,1.8262538E0,1.1061801E0,2.363756E0,1.496903E1,3.4202611E0,5.2696144E1,4.3575893E1,5.374607E1,5.06767E1,4.7967422E1],"tree_param":{"num_deleted":"0","num_feature":"6","num_nodes":"25","size_leaf_vector":"1"}},{"base_weights":[-1.972219E-2,-9.871461E-2,6.598941E-3,-9.166661E-2,3.44943E-2,5.870861E-2,-1.0550312E0,-1.2001407E-1,7.993611E-2,-1.2820504E-2,-1.21500015E-1,3.4785938E-2,-3.4209383E-3],"categories":[],"categories_nodes":[],"categories_segments":[],"categories_sizes":[],"default_left":[0,0,0,0,0,0,0,0,0,0,0,0,0],"id":51,"left_children":[1,-1,3,-1,5,7,9,-1,11,-1,-1,-1,-1],"loss_changes":[7.3692827E0,0E0,7.306903E0,0E0,7.3212833E0,7.3143167E0,7.390189E-1,0E0,8.164652E0,0E0,0E0,0E0,0E0],"parents":[2147483647,0,0,2,2,4,4,5,5,6,6,8,8],"right_children":[2,-1,4,-1,6,8,10,-1,12,-1,-1,-1,-1],"split_conditions":[2.646E1,-9.871461E-2,1.5E0,-9.166661E-2,3.238201E0,3.4E1,1.3555556E2,-1.2001407E-1,5.1E1,-1.2820504E-2,-1.21500015E-1,3.4785938E-2,-3.4209383E-3],"split_indices":[3,0,2,0,2,0,4,0,0,0,0,0,0],"split_type":[0,0,0,0,0,0,0,0,0,0,0,0,0],"sum_hessian":[2.8814774E2,6.66524E0,2.8148248E2,7.3208313E0,2.7416165E2,2.6912653E2,5.0351243E0,3.541952E0,2.655846E2,1.0062964E0,4.028828E0,7.873339E1,1.868512E2],"tree_param":{"num_deleted":"0","num_feature":"6","num_nodes":"13","size_leaf_vector":"1"}},{"base_weights":[-1.9552603E-2,-1.0887607E-1,3.0063244E-3,6.328241E-1,-4.8271846E-2,-7.277954E-2,7.5646704E-1,1.3164337E-1,-2.9036114E-1,4.52854E-2,8.688172E-1,4.1295442E-1,-2.3308363E-2,-1.637649E-1,-9.332056E-1,6.424078E-2,-7.667697E-2,3.4332704E-3,9.804385E-2,-5.7381492E-2,6.3753925E-2,3.1554654E-2,-2.9077714E-2,-5.4881137E-2,2.6998779E-2,-1.0641407E-1,2.4194214E-2],"categories":[],"categories_nodes":[],"categories_segments":[],"categories_sizes":[],"default_left":[0,0,0,0,0,0,0,0,0,0,0,0,0,0,0,0,0,0,0,0,0,0,0,0,0,0,0],"id":52,"left_children":[1,-1,3,5,7,-1,9,11,13,15,17,19,21,23,25,-1,-1,-1,-1,-1,-1,-1,-1,-1,-1,-1,-1],"loss_changes":[6.9090934E0,0E0,9.118295E0,4.126487E0,1.1412056E1,0E0,1.5567446E0,6.569496E0,8.932825E0,2.3255727E0,1.5680428E0,1.222325E1,8.97258E0,1.5928871E1,3.0510502E0,0E0,0E0,0E0,0E0,0E0,0E0,0E0,0E0,0E0,0E0,0E0,0E0],"parents":[2147483647,0,0,2,2,3,3,4,4,6,6,7,7,8,8,9,9,10,10,11,11,12,12,13,13,14,14],"right_children":[2,-1,4,6,8,-1,10,12,14,16,18,20,22,24,26,-1,-1,-1,-1,-1,-1,-1,-1,-1,-1,-1,-1],"split_conditions":[1.337E2,-1.0887607E-1,1.3412163E2,2.955E1,1E0,-7.277954E-2,1.3387193E2,4.9E1,2.5666666E1,2.00413E1,3.2363636E1,1.3805826E2,2.8683332E1,2.5066668E1,1.4213274E2,6.424078E-2,-7.667697E-2,3.4332704E-3,9.804385E-2,-5.7381492E-2,6.3753925E-2,3.1554654E-2,-2.9077714E-2,-5.4881137E-2,2.6998779E-2,-1.0641407E-1,2.4194214E-2],"split_indices":[4,0,4,3,1,0,4,0,5,5,3,4,3,5,4,0,0,0,0,0,0,0,0,0,0,0,0],"split_type":[0,0,0,0,0,0,0,0,0,0,0,0,0,0,0,0,0,0,0,0,0,0,0,0,0,0,0],"sum_hessian":[2.8530875E2,4.9186845E0,2.8039008E2,2.0256094E1,2.6013397E2,1.2803465E0,1.8975748E1,1.4949152E2,1.10642456E2,2.7801766E0,1.6195572E1,5.2504974E1,9.698654E1,9.348673E1,1.715572E1,1.722497E0,1.0576798E0,2.065018E0,1.4130553E1,9.446114E0,4.305886E1,4.2704575E1,5.4281967E1,4.938337E1,4.4103363E1,1.5520846E1,1.634873E0],"tree_param":{"num_deleted":"0","num_feature":"6","num_nodes":"27","size_leaf_vector":"1"}},{"base_weights":[-1.8494677E-2,2.0377137E-2,-6.4743E-1,-1.7275394E-1,1.7659439E-1,-1.0633442E0,3.5526404E-1,-1.2426964E-1,-5.4532543E-2,-3.754409E-2,4.7961393E-1,-1.1215525E-1,-3.4548573E-2,7.185954E-2,-5.0373908E-2,6.6368717E-1,-1.9626331E-1,-7.663431E-1,2.9023927E-1,7.4210227E-1,-1.5920156E-1,-7.578477E-2,8.247861E-2,4.809463E-3,-1.11590706E-1,4.2518675E-2,-1.3064195E-1,5.00485E-2,-6.648478E-2,-1.0076594E-1,7.999397E-2],"categories":[],"categories_nodes":[],"categories_segments":[],"categories_sizes":[],"default_left":[0,0,0,0,0,0,0,0,0,0,0,0,0,0,0,0,0,0,0,0,0,0,0,0,0,0,0,0,0,0,0],"id":53,"left_children":[1,3,5,7,9,11,13,-1,15,17,19,-1,-1,-1,-1,21,23,25,27,29,-1,-1,-1,-1,-1,-1,-1,-1,-1,-1,-1],"loss_changes":[6.8779564E0,8.03825E0,7.2066684E0,1.500877E1,9.571209E0,1.066103E-1,2.0942914E0,0E0,1.11624565E1,2.1051485E1,3.437043E1,0E0,0E0,0E0,0E0,4.767877E0,2.0568027E1,1.8139038E1,1.2555126E1,6.357218E0,0E0,0E0,0E0,0E0,0E0,0E0,0E0,0E0,0E0,0E0,0E0],"parents":[2147483647,0,0,1,1,2,2,3,3,4,4,5,5,6,6,8,8,9,9,10,10,15,15,16,16,17,17,18,18,19,19],"right_children":[2,4,6,8,10,12,14,-1,16,18,20,-1,-1,-1,-1,22,24,26,28,30,-1,-1,-1,-1,-1,-1,-1,-1,-1,-1,-1],"split_conditions":[3.6784634E1,3.2363636E1,1.4101718E2,1.7036048E0,1.3903267E2,1.4064075E2,3.7604317E1,-1.2426964E-1,2.2E1,5.7E1,5.7E1,-1.1215525E-1,-3.4548573E-2,7.185954E-2,-5.0373908E-2,2.5928571E0,1E0,2.288889E1,2.15E0,1.68E0,-1.5920156E-1,-7.578477E-2,8.247861E-2,4.809463E-3,-1.11590706E-1,4.2518675E-2,-1.3064195E-1,5.00485E-2,-6.648478E-2,-1.0076594E-1,7.999397E-2],"split_indices":[3,3,4,2,4,4,3,0,5,0,0,0,0,0,0,2,1,5,2,2,0,0,0,0,0,0,0,0,0,0,0],"split_type":[0,0,0,0,0,0,0,0,0,0,0,0,0,0,0,0,0,0,0,0,0,0,0,0,0,0,0,0,0,0,0],"sum_hessian":[2.7979205E2,2.6441714E2,1.5374897E1,1.1819144E2,1.4622571E2,1.0824459E1,4.5504375E0,1.0813561E1,1.0737788E2,8.619169E1,6.003402E1,9.492399E0,1.3320595E0,3.3127165E0,1.237721E0,1.7090279E1,9.02876E1,2.6324158E1,5.9867527E1,5.3852367E1,6.1816506E0,1.3625873E0,1.5727691E1,7.208235E1,1.820525E1,8.276676E0,1.804748E1,4.945652E1,1.0411008E1,1.1976442E0,5.2654724E1],"tree_param":{"num_deleted":"0","num_feature":"6","num_nodes":"31","size_leaf_vector":"1"}},{"base_weights":[-1.9775365E-2,-9.610942E-2,4.3359287E-3,4.321179E-2,-6.288688E-1,6.708093E-2,-1.0275967E0,-1.0378699E0,3.3763528E-1,-4.638986E-1,1.2034212E-1,-2.1340642E-2,-1.1742423E-1,-1.1017348E-1,-3.2574754E-2,6.982844E-2,-4.7678992E-2,6.667029E-2,-1.3300852E-1,-1.0715367E-1,1.4332756E-2],"categories":[],"categories_nodes":[],"categories_segments":[],"categories_sizes":[],"default_left":[0,0,0,0,0,0,0,0,0,0,0,0,0,0,0,0,0,0,0,0,0],"id":54,"left_children":[1,-1,3,5,7,9,11,13,15,17,19,-1,-1,-1,-1,-1,-1,-1,-1,-1,-1],"loss_changes":[6.163109E0,0E0,6.5647974E0,6.488239E0,6.4485493E0,7.0302773E0,4.1058493E-1,1.4525127E-1,1.901866E0,2.3105656E1,6.3156705E0,0E0,0E0,0E0,0E0,0E0,0E0,0E0,0E0,0E0,0E0],"parents":[2147483647,0,0,2,2,3,3,4,4,5,5,6,6,7,7,8,8,9,9,10,10],"right_children":[2,-1,4,6,8,10,12,14,16,18,20,-1,-1,-1,-1,-1,-1,-1,-1,-1,-1],"split_conditions":[2.646E1,-9.610942E-2,3.6784634E1,3.238201E0,1.4101718E2,1.6142857E0,1.3575E2,1.4064075E2,3.7604317E1,1.3519118E2,1.337E2,-2.1340642E-2,-1.1742423E-1,-1.1017348E-1,-3.2574754E-2,6.982844E-2,-4.7678992E-2,6.667029E-2,-1.3300852E-1,-1.0715367E-1,1.4332756E-2],"split_indices":[3,0,3,2,4,2,4,4,3,4,4,0,0,0,0,0,0,0,0,0,0],"split_type":[0,0,0,0,0,0,0,0,0,0,0,0,0,0,0,0,0,0,0,0,0],"sum_hessian":[2.7036185E2,5.7816625E0,2.645802E2,2.5015367E2,1.4426528E1,2.4561606E2,4.537614E0,1.0084972E1,4.3415556E0,2.1688263E1,2.2392778E2,1.0672715E0,3.4703424E0,8.75288E0,1.3320928E0,3.1078997E0,1.2336559E0,9.508053E0,1.2180211E1,3.3736508E0,2.2055414E2],"tree_param":{"num_deleted":"0","num_feature":"6","num_nodes":"21","size_leaf_vector":"1"}},{"base_weights":[-2.0453678E-2,4.314385E-1,-7.068162E-2,-1.0147794E-1,7.260253E-1,-2.974727E-1,9.3028314E-2,8.444947E-1,-7.904539E-2,1.0147615E-1,-4.9827224E-1,-1.0418508E-1,3.54041E-1,9.42652E-2,-4.1611157E-2,-8.5611063E-1,5.4831797E-1,-1.3931333E0,-1.6855918E-1,1.7569345E-1,-9.861874E-1,6.28872E-1,